SVM-light Version V6.02
2 # kernel type
3 # kernel parameter -d 
0.01 # kernel parameter -g 
1 # kernel parameter -s 
1 # kernel parameter -r 
empty# kernel parameter -u 
21 # highest feature index 
554 # number of training documents 
223 # number of support vectors plus 1 
1.5481675 # threshold b, each following line is a SV (starting with alpha*y)
-0.34277773904364378099174359704193 1:7.5 2:3.4089999 3:4.0910001 4:5.454 5:3.4089999 6:14.318 7:2.727 8:2.727 9:1.364 10:10.909 11:2.727 12:1.364 13:8.8629999 14:5.454 15:2.0450001 16:4.0910001 17:3.4089999 18:6.1360002 19:1.364 20:1.364 21:7.2740002 #
-0.50084865983712267833993792010006 1:5.1240001 2:0 3:4.3920002 4:6.5879998 5:5.1240001 6:5.1240001 7:0.73199999 8:8.052 9:10.248 10:12.444 11:1.464 12:2.1960001 13:2.1960001 14:8.052 15:2.928 16:3.6600001 17:6.5879998 18:6.5879998 19:0 20:1.464 21:7.0359998 #
-0.13554939908160854034058218076098 1:6.5910001 2:2.197 3:2.197 4:2.197 5:8.0550003 6:10.984 7:0 8:12.449 9:6.5910001 10:15.378 11:3.661 12:1.465 13:4.3940001 14:2.197 15:3.661 16:1.465 17:2.9289999 18:2.9289999 19:1.465 20:2.197 21:6.9990001 #
-0.26757734031562341314725017582532 1:3.846 2:1.666 3:6.5380001 4:6.5380001 5:4.9990001 6:3.974 7:2.0510001 8:6.1529999 9:7.3070002 10:10.512 11:2.0510001 12:5.6399999 13:2.6919999 14:4.23 15:3.589 16:7.0500002 17:5.1279998 18:3.589 19:0.64099997 20:3.3329999 21:8.4720001 #
-0.50084865983712267833993792010006 1:4.9330001 2:0.37900001 3:5.046 4:6.8299999 5:4.1360002 6:3.832 7:2.201 8:6.1849999 9:6.7160001 10:9.1059999 11:2.2390001 12:5.1599998 13:5.388 14:3.1489999 15:4.895 16:5.691 17:5.388 18:4.743 19:1.897 20:3.642 21:8.4440002 #
3.3308322862212822457195215974934 1:9.3719997 2:0.69400001 3:4.8600001 4:5.901 5:4.165 6:9.0249996 7:1.7359999 8:2.0829999 9:3.8180001 10:10.76 11:2.777 12:2.0829999 13:3.8180001 14:4.8600001 15:6.5949998 16:3.471 17:3.471 18:6.2480001 19:2.777 20:2.4300001 21:9.0570002 #
-0.50084865983712267833993792010006 1:10.173 2:0 3:4.7470002 4:8.1379995 5:3.391 6:8.816 7:2.0350001 8:1.3559999 9:1.3559999 10:8.1379995 11:3.391 12:2.7130001 13:4.7470002 14:1.3559999 15:8.1379995 16:4.7470002 17:4.7470002 18:12.885 19:1.3559999 20:0 21:7.7680001 #
1.4024847111560012624664750546799 1:7.322 2:0.58600003 3:5.5650001 4:6.151 5:2.6359999 6:4.3930001 7:2.05 8:4.9790001 9:8.4940004 10:8.7869997 11:1.1720001 12:6.737 13:3.2219999 14:2.3429999 15:3.5150001 16:6.737 17:9.0799999 18:5.2719998 19:0.87900001 20:2.6359999 21:7.4460001 #
0.10606408215276452722264366457239 1:11.019 2:0.50099999 3:5.5100002 4:5.0089998 5:1.753 6:9.5170002 7:2.0039999 8:3.506 9:2.2539999 10:8.7650003 11:2.2539999 12:2.5039999 13:3.757 14:5.0089998 15:6.2610002 16:5.7600002 17:5.2589998 18:7.0120001 19:1.753 20:2.7550001 21:7.8390002 #
-0.17515124421793532016877747992112 1:4.1170001 2:0 3:7.5479999 4:6.862 5:3.431 6:6.1760001 7:2.059 8:2.059 9:15.097 10:7.5479999 11:2.059 12:5.4899998 13:1.372 14:4.803 15:4.803 16:8.2349997 17:5.4899998 18:2.7449999 19:0 20:2.7449999 21:7.3610001 #
-0.50084865983712267833993792010006 1:13.054 2:0.214 3:5.3499999 4:4.066 5:1.712 6:8.3459997 7:1.712 8:4.7080002 9:5.1360002 10:8.5600004 11:1.926 12:3.638 13:4.066 14:3.424 15:3.638 16:5.1360002 17:7.704 18:7.704 19:0.428 20:2.1400001 21:7.336 #
-0.50084865983712267833993792010006 1:9.8800001 2:0.41999999 3:6.0960002 4:4.415 5:1.472 6:7.1479998 7:2.523 8:3.7839999 9:5.8860002 10:8.1990004 11:2.733 12:2.733 13:5.256 14:4.835 15:3.5739999 16:6.5170002 17:4.625 18:4.625 19:3.7839999 20:2.9430001 21:8.5539999 #
-0.50084865983712267833993792010006 1:8.8430004 2:1.21 3:4.8800001 4:3.7119999 5:2.7950001 6:7.6329999 7:2.4189999 8:4.421 9:3.5450001 10:7.967 11:1.877 12:3.5450001 13:6.882 14:2.836 15:4.8390002 16:6.382 17:6.5900002 18:7.6329999 19:1.835 20:2.336 21:7.8179998 #
2.6544458785172695414189547591377 1:0 2:0 3:2.0799999 4:0 5:6.2410002 6:10.401 7:2.0799999 8:6.2410002 9:0 10:8.3210001 11:4.1599998 12:0 13:18.722 14:4.1599998 15:6.2410002 16:10.401 17:2.0799999 18:4.1599998 19:4.1599998 20:2.0799999 21:8.4709997 #
0.44658668255144512437837533980201 1:4.4689999 2:0.99299997 3:3.4760001 4:3.973 5:5.2140002 6:6.4559999 7:0.745 8:9.9320002 9:9.1870003 10:11.67 11:1.49 12:4.7179999 13:3.973 14:4.7179999 15:1.49 16:7.9460001 17:3.973 18:3.2279999 19:0.99299997 20:3.7249999 21:7.631 #
3.5059406188598587483795654407004 1:2.5369999 2:1.2690001 3:5.0739999 4:6.3429999 5:2.1140001 6:8.4569998 7:4.2290001 8:9.3030005 9:5.9200001 10:11.417 11:2.5369999 12:4.2290001 13:4.2290001 14:4.652 15:1.691 16:4.652 17:2.96 18:6.7659998 19:0.42300001 20:2.96 21:8.2370005 #
-0.50084865983712267833993792010006 1:5.599 2:0.89600003 3:4.8369999 4:5.7329998 5:2.4189999 6:7.211 7:0.76099998 8:6.2709999 9:6.2259998 10:7.6589999 11:1.971 12:9.585 13:1.299 14:5.2399998 15:3.0910001 16:6.6290002 17:7.8379998 18:7.704 19:0.58200002 20:0.80599999 21:7.6420002 #
-0.50084865983712267833993792010006 1:5.1360002 2:1.926 3:2.9960001 4:6.2059999 5:3.424 6:5.5640001 7:0.85600001 8:5.9920001 9:4.494 10:10.059 11:2.3540001 12:8.5609999 13:2.5680001 14:4.7080002 15:2.1400001 16:8.7749996 17:5.3499999 18:6.4200001 19:0.85600001 20:4.2800002 21:7.3319998 #
-0.50084865983712267833993792010006 1:10.813 2:1.696 3:4.2410002 4:3.6040001 5:3.6040001 6:12.722 7:1.272 8:2.1199999 9:0.63599998 10:11.237 11:2.1199999 12:1.484 13:4.4530001 14:3.1800001 15:8.6929998 16:7.2090001 17:4.4530001 18:5.0890002 19:1.272 20:1.696 21:8.4040003 #
1.9387536570554617654238427348901 1:15.808 2:1.756 3:5.5619998 4:2.049 5:2.342 6:7.9039998 7:3.22 8:3.513 9:4.9759998 10:7.6110001 11:1.464 12:2.927 13:5.855 14:2.635 15:1.756 16:5.855 17:7.026 18:7.3179998 19:1.464 20:1.464 21:7.4970002 #
-0.50084865983712267833993792010006 1:8.3000002 2:1.35 3:5.9970002 4:6.0370002 5:3.971 6:5.0440001 7:2.224 8:4.329 9:5.5999999 10:8.9759998 11:2.5020001 12:3.217 13:4.0110002 14:3.1370001 15:5.7979999 16:6.0370002 17:4.6469998 18:5.6789999 19:1.271 20:3.415 21:8.4569998 #
-0.045375552200060315088947504591488 1:2.8380001 2:0.426 3:4.1160002 4:4.494 5:3.5480001 6:5.5819998 7:2.6960001 8:7.7579999 9:6.4809999 10:7.7579999 11:1.277 12:9.2250004 13:4.7309999 14:5.9130001 15:2.6489999 16:11.448 17:5.724 18:3.595 19:0.37799999 20:2.507 21:6.8530002 #
-0.50084865983712267833993792010006 1:13.036 2:0.54799998 3:6.033 4:4.8520002 5:2.0669999 6:8.691 7:2.447 8:4.092 9:1.223 10:9.6190004 11:1.603 12:1.73 13:5.0619998 14:3.4170001 15:5.948 16:5.6110001 17:5.948 18:7.7620001 19:1.223 20:1.392 21:7.6939998 #
-0.50084865983712267833993792010006 1:10.562 2:0.634 3:4.4359999 4:7.3930001 5:2.3239999 6:5.915 7:3.5910001 8:4.013 9:3.5910001 10:11.829 11:1.267 12:2.957 13:3.5910001 14:5.0700002 15:5.4920001 16:4.4359999 17:4.4359999 18:5.4920001 19:2.112 20:2.3239999 21:8.5360003 #
-0.50084865983712267833993792010006 1:10.84 2:1.432 3:4.9089999 4:5.3179998 5:3.8859999 6:7.5679998 7:2.25 8:1.636 9:3.477 10:8.5900002 11:2.0450001 12:3.8859999 13:4.0910001 14:5.3179998 15:5.3179998 16:6.1360002 17:3.477 18:8.1809998 19:0.61400002 20:2.8629999 21:8.1660004 #
1.6898675978112274176368146072491 1:5.1220002 2:0.34099999 3:5.1220002 4:7.5120001 5:4.098 6:3.756 7:0.68300003 8:9.5609999 9:9.5609999 10:9.5609999 11:1.3660001 12:8.8780003 13:2.049 14:2.049 15:2.049 16:5.4629998 17:4.7810001 18:4.4390001 19:1.3660001 20:4.098 21:8.1459999 #
3.5059406188598587483795654407004 1:2.346 2:1.005 3:4.0219998 4:5.362 5:5.697 6:4.3569999 7:0 8:10.054 9:11.059 10:7.3730001 11:2.346 12:7.0380001 13:2.0109999 14:2.681 15:3.3510001 16:6.0320001 17:6.368 18:5.027 19:1.676 20:4.0219998 21:8.1730003 #
3.5059406188598587483795654407004 1:5.1599998 2:0.449 3:5.8330002 4:5.1599998 5:4.487 6:4.487 7:1.795 8:7.8530002 9:6.9549999 10:9.8719997 11:1.795 12:7.8530002 13:4.039 14:2.4679999 15:2.244 16:7.1799998 17:4.9359999 18:4.7119999 19:0.449 20:4.487 21:7.7870002 #
-0.50084865983712267833993792010006 1:5.5710001 2:1.393 3:3.4820001 4:7.6599998 5:4.875 6:6.9640002 7:1.393 8:8.3570004 9:11.142 10:10.446 11:2.089 12:2.786 13:3.4820001 14:0.69599998 15:2.786 16:7.6599998 17:2.786 18:5.5710001 19:0 20:2.786 21:8.0749998 #
-0.50084865983712267833993792010006 1:3.0109999 2:1.654 3:4.4949999 4:4.3249998 5:3.9430001 6:3.5190001 7:2.5439999 8:8.6079998 9:7.0809999 10:11.321 11:1.993 12:7.3779998 13:2.9679999 14:2.6289999 15:3.3499999 16:7.632 17:5.5120001 18:4.283 19:1.102 20:4.4949999 21:8.1569996 #
-0.50084865983712267833993792010006 1:3.1470001 2:1.049 3:2.3080001 4:4.197 5:9.4420004 6:3.987 7:1.049 8:12.17 9:9.2320004 10:11.121 11:0.62900001 12:6.9239998 13:2.5179999 14:3.5669999 15:0.83899999 16:6.085 17:3.5669999 18:2.7279999 19:1.888 20:6.085 21:7.4660001 #
3.5059406188598587483795654407004 1:12.295 2:1.576 3:3.783 4:5.6750002 5:5.0440001 6:5.6750002 7:4.098 8:2.8369999 9:0.315 10:10.719 11:1.576 12:2.207 13:5.3590002 14:4.414 15:6.9359999 16:5.3590002 17:5.0440001 18:5.6750002 19:1.892 20:1.261 21:8.2609997 #
1.3856519289743418621441151117324 1:9.6499996 2:1.316 3:8.7720003 4:4.8249998 5:0.87699997 6:7.4569998 7:5.263 8:3.948 9:0.43900001 10:9.2110004 11:0.87699997 12:2.1930001 13:4.3860002 14:0.43900001 15:5.7020001 16:5.7020001 17:7.895 18:10.527 19:2.1930001 20:0 21:8.3280001 #
2.2112361589182962795518960774643 1:7.6680002 2:1.475 3:7.0780001 4:6.1939998 5:2.0650001 6:8.5530005 7:6.783 8:1.1799999 9:0.58999997 10:8.8479996 11:1.77 12:1.475 13:6.1939998 14:3.539 15:10.913 16:0.29499999 17:3.539 18:7.6680002 19:2.359 20:1.77 21:10.045 #
-0.50084865983712267833993792010006 1:12.203 2:0.414 3:6.618 4:5.3769999 5:2.0680001 6:8.066 7:3.516 8:2.4820001 9:1.448 10:9.7209997 11:1.034 12:3.102 13:5.5840001 14:1.448 15:7.0320001 16:5.5840001 17:6.2049999 18:4.757 19:2.2750001 20:2.6889999 21:8.3760004 #
-0.50084865983712267833993792010006 1:12.992 2:1.257 3:6.2870002 4:4.401 5:2.096 6:6.0770001 7:2.724 8:2.096 9:1.048 10:8.382 11:1.886 12:1.467 13:5.448 14:1.886 15:6.2870002 16:6.7059999 17:7.9629998 18:8.382 19:2.5150001 20:2.096 21:8.0059996 #
-0.50084865983712267833993792010006 1:15.026 2:0.65700001 3:5.388 4:5.1690001 5:2.585 6:10.382 7:1.928 8:2.234 9:0.83200002 10:9.0240002 11:1.796 12:0.92000002 13:4.7750001 14:3.592 15:5.651 16:5.8260002 17:4.0739999 18:10.076 19:1.489 20:1.095 21:7.4790001 #
0.94163124216365279295359869138338 1:5.789 2:0.72399998 3:5.427 4:7.2360001 5:5.427 6:3.618 7:0 8:6.8740001 9:13.024 10:9.4069996 11:0.72399998 12:6.8740001 13:0.72399998 14:2.171 15:2.171 16:3.98 17:5.427 18:5.789 19:2.533 20:3.618 21:8.467 #
2.7973092328486206525894885999151 1:6.6290002 2:0.66299999 3:5.9660001 4:4.6409998 5:4.6409998 6:6.6290002 7:1.989 8:3.3150001 9:9.9440002 10:8.618 11:2.983 12:4.309 13:4.9720001 14:0.99400002 15:2.983 16:6.2979999 17:3.9779999 18:8.618 19:1.326 20:1.989 21:8.5139999 #
3.5059406188598587483795654407004 1:7.6209998 2:1.039 3:2.0780001 4:7.967 5:4.5029998 6:6.5809999 7:0.69300002 8:6.2350001 9:7.6209998 10:6.928 11:1.732 12:4.5029998 13:2.7709999 14:3.464 15:2.7709999 16:8.6599998 17:4.5029998 18:7.6209998 19:2.425 20:2.425 21:7.8610001 #
-0.50084865983712267833993792010006 1:6.559 2:0 3:7.1939998 4:4.4429998 5:3.385 6:8.4630003 7:0.84600002 8:8.6750002 9:6.9819999 10:7.829 11:1.693 12:3.385 13:4.2319999 14:4.2319999 15:4.2319999 16:5.29 17:5.9239998 18:6.1360002 19:0 20:2.3269999 21:8.1709995 #
-0.50084865983712267833993792010006 1:6.8870001 2:0.62599999 3:4.3829999 4:6.8870001 5:2.296 6:8.1389999 7:1.67 8:6.052 9:7.3039999 10:5.4260001 11:2.296 12:4.3829999 13:4.8000002 14:4.5910001 15:4.3829999 16:4.5910001 17:6.2610002 18:6.052 19:1.043 20:3.756 21:8.1759996 #
-0.50084865983712267833993792010006 1:7.822 2:0 3:4.7340002 4:8.0279999 5:4.1170001 6:8.0279999 7:1.029 8:7.6160002 9:7.4099998 10:5.5580001 11:1.235 12:3.4990001 13:5.3520002 14:2.0580001 15:2.2639999 16:5.9689999 17:7.204 18:6.381 19:0.82300001 20:2.882 21:7.9910002 #
3.5059406188598587483795654407004 1:10.739 2:0.65100002 3:4.23 4:5.8569999 5:1.302 6:8.4610004 7:3.905 8:3.5799999 9:1.952 10:9.1120005 11:1.302 12:2.9289999 13:5.2069998 14:1.952 15:4.23 16:7.1589999 17:5.2069998 18:10.413 19:0.97600001 20:3.2539999 21:7.5830002 #
1.3235791371497498403186909854412 1:11.98 2:1.159 3:11.593 4:4.2509999 5:2.319 6:9.6610003 7:5.0240002 8:2.319 9:0 10:8.1149998 11:0.773 12:1.546 13:3.092 14:1.546 15:6.9559999 16:2.319 17:5.0240002 18:11.593 19:1.546 20:0.773 21:8.4130001 #
-0.50084865983712267833993792010006 1:11.089 2:2.72 3:3.9749999 4:4.6030002 5:4.3940001 6:5.0209999 7:2.3010001 8:5.4400001 9:2.092 10:9.415 11:2.9289999 12:3.348 13:3.5569999 14:3.348 15:5.0209999 16:3.766 17:6.0669999 18:6.9039998 19:2.9289999 20:3.348 21:7.7319999 #
-0.50084865983712267833993792010006 1:9.2119999 2:1.0470001 3:5.2340002 4:5.4439998 5:3.559 6:6.9089999 7:3.559 8:4.8150001 9:3.3499999 10:10.678 11:1.466 12:3.559 13:5.2340002 14:4.8150001 15:4.6059999 16:4.3969998 17:4.1869998 18:4.6059999 19:1.675 20:3.3499999 21:8.2969999 #
-0.50084865983712267833993792010006 1:12.324 2:0.616 3:5.1350002 4:6.7779999 5:2.0539999 6:6.1620002 7:2.4649999 8:3.697 9:0.41100001 10:12.119 11:2.8759999 12:1.643 13:5.546 14:3.9030001 15:8.0109997 16:5.3410001 17:4.724 18:6.573 19:0.616 20:0.616 21:8.3900003 #
2.809021263480966368319968751166 1:3.359 2:0.79000002 3:5.928 4:6.9159999 5:3.9519999 6:5.928 7:1.778 8:7.3109999 9:10.078 10:8.1020002 11:2.569 12:5.533 13:4.7420001 14:1.383 15:2.3710001 16:5.533 17:4.7420001 18:3.5569999 19:1.186 20:5.73 21:8.5100002 #
3.5059406188598587483795654407004 1:8.6829996 2:0.62 3:6.2020001 4:7.4429998 5:2.171 6:6.823 7:1.551 8:7.4429998 9:4.0320001 10:10.544 11:2.7909999 12:2.4809999 13:4.652 14:3.1010001 15:4.9619999 16:5.8920002 17:6.2020001 18:4.9619999 19:0.62 20:0.93000001 21:7.895 #
1.3228622049885050415696241543628 1:4.0999999 2:0.64700001 3:4.5320001 4:4.9629998 5:5.8260002 6:6.9050002 7:1.726 8:7.553 9:6.0419998 10:10.142 11:2.8050001 12:4.5320001 13:3.4530001 14:2.589 15:3.237 16:6.9050002 17:8.8470001 18:4.0999999 19:1.511 20:2.158 21:7.427 #
-0.50084865983712267833993792010006 1:6.4660001 2:1.877 3:5.631 4:5.006 5:4.3800001 6:6.257 7:2.086 8:6.257 9:6.257 10:12.722 11:1.46 12:5.006 13:3.546 14:3.128 15:1.877 16:7.9250002 17:6.0479999 18:3.9630001 19:0.62599999 20:1.877 21:7.6059999 #
-0.50084865983712267833993792010006 1:2.8859999 2:0.61799997 3:5.566 4:5.7719998 5:4.5349998 6:5.9780002 7:0.61799997 8:5.7719998 9:9.8950005 10:11.132 11:3.711 12:4.7410002 13:2.6800001 14:3.9170001 15:3.711 16:6.803 17:5.566 18:3.711 19:1.649 20:2.2679999 21:8.4720001 #
-0.50084865983712267833993792010006 1:6.7909999 2:1.273 3:5.5180001 4:5.5180001 5:2.122 6:7.428 7:2.5469999 8:5.3060002 9:7.428 10:8.9130001 11:2.122 12:4.4569998 13:5.73 14:3.1830001 15:2.7590001 16:8.4890003 17:4.0320001 18:5.5180001 19:0.42399999 20:2.7590001 21:7.6820002 #
3.5059406188598587483795654407004 1:8.3219995 2:0.574 3:7.461 4:6.027 5:3.7309999 6:6.8870001 7:2.0090001 8:4.592 9:4.592 10:6.5999999 11:2.8699999 12:2.296 13:4.3049998 14:2.8699999 15:5.7399998 16:4.3049998 17:5.4530001 18:6.5999999 19:1.722 20:4.0180001 21:9.0290003 #
2.1217603286538180284992449742276 1:12.44 2:0.63800001 3:6.3800001 4:2.8710001 5:1.914 6:6.0609999 7:0.63800001 8:6.3800001 9:5.1040001 10:7.0180001 11:1.595 12:2.8710001 13:3.8280001 14:2.8710001 15:8.2939997 16:4.4660001 17:4.4660001 18:7.0180001 19:3.1900001 20:2.8710001 21:9.0900002 #
-0.50084865983712267833993792010006 1:11.467 2:0.67500001 3:6.0710001 4:4.0469999 5:0.67500001 6:8.0939999 7:1.349 8:6.0710001 9:6.0710001 10:8.7690001 11:3.3729999 12:2.0239999 13:4.7220001 14:3.3729999 15:4.0469999 16:3.3729999 17:4.7220001 18:9.4429998 19:1.349 20:2.698 21:7.592 #
-0.50084865983712267833993792010006 1:9.6730003 2:2.2639999 3:5.5570002 4:4.7340002 5:2.47 6:6.1739998 7:3.0869999 8:5.763 9:3.4990001 10:6.586 11:3.0869999 12:2.881 13:3.4990001 14:2.2639999 15:6.1739998 16:4.7340002 17:7.2030001 18:8.8500004 19:0.61699998 20:3.0869999 21:7.796 #
-0.50084865983712267833993792010006 1:10.256 2:0 3:6.7690001 4:3.2820001 5:2.461 6:9.2299995 7:2.872 8:3.487 9:2.872 10:7.3839998 11:1.026 12:3.487 13:7.1789999 14:2.461 15:4.7179999 16:4.1020002 17:6.974 18:8.2049999 19:2.0510001 20:3.2820001 21:7.9039998 #
3.1396585600311497366021740162978 1:7.2909999 2:0 3:4.4689999 4:2.1170001 5:2.1170001 6:5.8800001 7:0.94099998 8:4.704 9:6.3499999 10:10.114 11:2.1170001 12:5.645 13:7.526 14:4.9390001 15:5.1739998 16:6.586 17:8.2320004 18:6.1149998 19:0.47 20:1.646 21:7.5650001 #
-0.50084865983712267833993792010006 1:4.1560001 2:0.861 3:4.7550001 4:5.3920002 5:3.2950001 6:1.7970001 7:2.471 8:8.2740002 9:8.1999998 10:10.446 11:1.161 12:5.9910002 13:5.7280002 14:5.3540001 15:1.6849999 16:7.5630002 17:7.8249998 18:4.1560001 19:0.824 20:2.5090001 21:7.5580001 #
-0.50084865983712267833993792010006 1:4.8800001 2:0 3:2.7880001 4:2.7880001 5:1.3940001 6:4.8800001 7:1.3940001 8:7.6680002 9:8.3649998 10:8.3649998 11:2.7880001 12:4.1820002 13:4.8800001 14:4.8800001 15:5.5770001 16:9.0620003 17:4.8800001 18:5.5770001 19:2.0910001 20:5.5770001 21:7.9860001 #
-0.50084865983712267833993792010006 1:3.562 2:0.185 3:2.914 4:3.3770001 5:4.8569999 6:3.2379999 7:1.295 8:5.7350001 9:8.7419996 10:10.407 11:1.434 12:7.7709999 13:3.747 14:4.8099999 15:5.7820001 16:7.2620001 17:8.0939999 18:3.885 19:1.388 20:3.793 21:7.724 #
0.15176313665864504809377422134276 1:7.5770001 2:0.722 3:4.3299999 4:4.3299999 5:2.8859999 6:8.2980003 7:2.526 8:3.9690001 9:6.494 10:8.6590004 11:2.526 12:2.8859999 13:5.0510001 14:3.247 15:3.608 16:5.0510001 17:4.6900001 18:9.0200005 19:1.804 20:4.3299999 21:7.9959998 #
1.5438023421834277115749500808306 1:3.4549999 2:1.382 3:3.8 4:4.145 5:4.836 6:5.8730001 7:2.418 8:5.1820002 9:9.6730003 10:10.364 11:1.382 12:5.1820002 13:2.418 14:5.527 15:2.418 16:6.5640001 17:6.2179999 18:3.8 19:3.4549999 20:3.8 21:8.1079998 #
-0.50084865983712267833993792010006 1:11.624 2:0.634 3:6.763 4:4.4380002 5:4.2270002 6:8.4540005 7:2.1129999 8:4.0149999 9:5.283 10:8.8760004 11:0.634 12:3.381 13:4.6490002 14:2.536 15:6.1290002 16:5.4949999 17:2.747 18:5.283 19:1.691 20:2.747 21:8.2790003 #
-0.50084865983712267833993792010006 1:9.691 2:1.031 3:3.9170001 4:5.7729998 5:2.6800001 6:7.6290002 7:3.5050001 8:4.3299999 9:3.711 10:7.2160001 11:2.2679999 12:3.5050001 13:6.1849999 14:4.5359998 15:5.3610001 16:5.3610001 17:4.7420001 18:8.0410004 19:0.412 20:1.8559999 21:8.2489996 #
-0.50084865983712267833993792010006 1:8.7650003 2:2.2420001 3:4.8920002 4:6.5219998 5:3.4649999 6:9.9870005 7:2.2420001 8:3.8729999 9:3.6689999 10:8.9680004 11:2.0380001 12:2.0380001 13:5.5029998 14:1.631 15:5.2989998 16:5.7069998 17:4.6880002 18:5.0960002 19:1.631 20:3.2609999 21:8.4820004 #
-0.50084865983712267833993792010006 1:6.901 2:0 3:3.45 4:8.9709997 5:4.1399999 6:5.5209999 7:2.0699999 8:6.901 9:9.6610003 10:8.2810001 11:0.69 12:5.5209999 13:0.69 14:6.901 15:2.0699999 16:4.8299999 17:7.5910001 18:3.45 19:1.38 20:3.45 21:7.5310001 #
-0.50084865983712267833993792010006 1:1.455 2:0.62400001 3:6.4450002 4:6.6529999 5:2.2869999 6:5.6129999 7:0.41600001 8:11.227 9:11.643 10:8.5240002 11:1.663 12:7.4850001 13:2.079 14:0.41600001 15:2.079 16:4.3660002 17:3.95 18:7.4850001 19:0.41600001 20:6.6529999 21:8.5220003 #
-0.50084865983712267833993792010006 1:3.4519999 2:1.381 3:6.2140002 4:7.5949998 5:6.2140002 6:2.7620001 7:2.0710001 8:12.428 9:11.737 10:6.2140002 11:2.0710001 12:8.2849998 13:3.4519999 14:1.381 15:0.69 16:5.5229998 17:3.4519999 18:3.4519999 19:0.69 20:2.0710001 21:8.8629999 #
2.7210374362747318244259986386169 1:11.906 2:1.984 3:3.6849999 4:3.6849999 5:1.984 6:9.6379995 7:1.4170001 8:2.835 9:4.5359998 10:12.19 11:2.2679999 12:4.2519999 13:5.1030002 14:1.984 15:5.3860002 16:7.0869999 17:5.9530001 18:3.402 19:1.1339999 20:1.4170001 21:8.1520004 #
1.7324565221638241752089015790261 1:8.0939999 2:0.67400002 3:7.0819998 4:5.059 5:2.3610001 6:8.0939999 7:2.023 8:7.0819998 9:4.3839998 10:8.0939999 11:2.3610001 12:1.686 13:5.3959999 14:3.0350001 15:7.0819998 16:4.3839998 17:4.7210002 18:6.7449999 19:1.686 20:1.686 21:8.2709999 #
-0.50084865983712267833993792010006 1:8.7290001 2:0 3:5.7480001 4:4.0450001 5:3.832 6:8.3030005 7:0.426 8:5.961 9:3.194 10:6.8130002 11:1.277 12:4.2579999 13:4.684 14:6.5999999 15:6.8130002 16:6.1739998 17:6.3870001 18:5.7480001 19:0.426 20:2.7679999 21:7.8119998 #
-0.50084865983712267833993792010006 1:11.911 2:0 3:5.605 4:3.503 5:2.102 6:7.7069998 7:0 8:3.503 9:6.3060002 10:6.3060002 11:2.102 12:2.803 13:3.503 14:2.803 15:9.1079998 16:7.006 17:5.605 18:7.006 19:0.70099998 20:3.503 21:8.9160004 #
-0.50084865983712267833993792010006 1:7.9840002 2:1.72 3:5.9549999 4:5.381 5:2.779 6:5.823 7:1.72 8:4.7199998 9:2.5580001 10:9.2629995 11:2.1170001 12:2.8670001 13:5.073 14:4.4109998 15:5.4699998 16:7.8520002 17:5.1609998 18:7.4549999 19:1.4119999 20:2.161 21:8.118 #
2.3262695465041338671596804488217 1:12.125 2:0.33700001 3:5.7259998 4:5.3889999 5:3.7049999 6:5.3889999 7:1.347 8:4.3790002 9:3.0309999 10:7.4099998 11:3.368 12:1.347 13:5.3889999 14:4.3790002 15:7.073 16:3.7049999 17:4.3790002 18:7.073 19:2.358 20:3.368 21:8.7229996 #
-0.50084865983712267833993792010006 1:7.6500001 2:1.391 3:4.1729999 4:6.2589998 5:2.7820001 6:6.954 7:4.1729999 8:9.0410004 9:3.477 10:12.518 11:2.086 12:3.477 13:3.477 14:1.391 15:2.7820001 16:8.3450003 17:4.1729999 18:3.477 19:1.391 20:3.477 21:7.5079999 #
-0.50084865983712267833993792010006 1:4.1719999 2:0.83399999 3:5.4239998 4:6.467 5:5.4239998 6:4.381 7:0.83399999 8:10.639 9:6.8839998 10:7.927 11:1.252 12:6.6750002 13:3.3380001 14:4.381 15:3.3380001 16:6.2579999 17:5.2150002 18:2.9200001 19:0.83399999 20:4.5890002 21:8.217 #
-0.50084865983712267833993792010006 1:6.2589998 2:1.669 3:5.4250002 4:3.964 5:3.7550001 6:5.842 7:1.878 8:3.3380001 9:7.302 10:7.302 11:3.5469999 12:5.2160001 13:5.6329999 14:1.878 15:3.3380001 16:3.5469999 17:7.5110002 18:6.6760001 19:1.669 20:5.842 21:8.408 #
-0.092539880691356657393953355494887 1:9.7019997 2:2.079 3:16.632999 4:6.237 5:5.5440001 6:5.5440001 7:1.386 8:4.158 9:1.386 10:6.9299998 11:0.69300002 12:1.386 13:2.079 14:4.158 15:2.079 16:6.237 17:6.237 18:7.6230001 19:0 20:1.386 21:8.5200005 #
-0.50084865983712267833993792010006 1:12.13 2:0.63800001 3:4.895 4:7.4489999 5:2.5539999 6:11.066 7:1.277 8:2.128 9:2.128 10:7.4489999 11:1.277 12:1.7029999 13:2.9790001 14:2.128 15:6.1719999 16:7.4489999 17:5.533 18:10.854 19:1.277 20:1.277 21:7.638 #
-0.50084865983712267833993792010006 1:12.123 2:1.045 3:5.0159998 4:4.3889999 5:2.0899999 6:7.3150001 7:2.0899999 8:3.7620001 9:3.3440001 10:12.123 11:2.299 12:2.0899999 13:5.8520002 14:2.5079999 15:7.3150001 16:5.434 17:2.717 18:7.1059999 19:1.4630001 20:1.6720001 21:8.243 #
-0.50084865983712267833993792010006 1:8.5010004 2:0.829 3:6.2199998 4:5.3909998 5:3.1099999 6:6.6350002 7:3.1099999 8:4.3540001 9:0.829 10:10.989 11:1.0369999 12:2.073 13:6.013 14:3.1099999 15:10.159 16:3.7320001 17:4.1469998 18:8.0860004 19:1.244 20:1.244 21:9.1879997 #
-0.50084865983712267833993792010006 1:5.0500002 2:1.175 3:5.2670002 4:6.138 5:3.526 6:5.2670002 7:1.6109999 8:6.8779998 9:6.7909999 10:8.967 11:1.872 12:5.1370001 13:3.0910001 14:3.8740001 15:4.2659998 16:5.7030001 17:5.8769999 18:6.3119998 19:1.567 20:3.221 21:8.4099998 #
-0.50084865983712267833993792010006 1:6.605 2:0.41299999 3:3.5090001 4:10.32 5:2.8900001 6:6.1919999 7:2.477 8:8.0500002 9:7.6370001 10:10.113 11:2.477 12:3.7149999 13:3.9219999 14:2.27 15:2.8900001 16:4.3340001 17:4.3340001 18:5.9860001 19:1.238 20:2.6830001 21:7.947 #
-0.50084865983712267833993792010006 1:5.8309999 2:1.666 3:4.79 4:8.7469997 5:3.332 6:9.1630001 7:1.4579999 8:3.957 9:6.039 10:7.7049999 11:3.7490001 12:4.3730001 13:3.54 14:3.54 15:2.4990001 16:4.3730001 17:4.79 18:8.3299999 19:1.25 20:2.9159999 21:7.9530001 #
-0.50084865983712267833993792010006 1:9.9619999 2:0.63599998 3:5.9349999 4:1.908 5:3.1789999 6:7.4180002 7:2.3310001 8:2.7550001 9:2.543 10:6.3579998 11:1.272 12:3.8150001 13:5.2989998 14:5.0869999 15:5.5110002 16:6.5700002 17:7.6300001 18:7.6300001 19:1.272 20:4.6630001 21:8.2259998 #
-0.50084865983712267833993792010006 1:11.719 2:1.234 3:3.9059999 4:2.2620001 5:1.85 6:11.308 7:0.61699998 8:2.467 9:2.6730001 10:5.9629998 11:0.61699998 12:4.5229998 13:6.579 14:4.3179998 15:3.701 16:6.1680002 17:10.28 18:6.1680002 19:3.29 20:2.6730001 21:7.684 #
-0.50084865983712267833993792010006 1:10.593 2:0.62300003 3:3.9460001 4:4.777 5:2.2850001 6:4.9850001 7:4.362 8:2.908 9:2.4920001 10:10.177 11:1.869 12:2.0769999 13:8.5159998 14:2.2850001 15:5.4000001 16:7.0619998 17:8.3079996 18:7.6849999 19:1.869 20:0.41499999 21:7.3639998 #
-0.50084865983712267833993792010006 1:2.26 2:1.849 3:3.697 4:3.9030001 5:5.3410001 6:6.7789998 7:1.643 8:6.9840002 9:6.9840002 10:6.573 11:1.438 12:8.6269999 13:3.9030001 14:2.8759999 15:2.4649999 16:9.0380001 17:5.546 18:5.9569998 19:1.643 20:4.7249999 21:7.7690001 #
-0.50084865983712267833993792010006 1:3.4890001 2:1.176 3:2.6170001 4:4.5890002 5:8.4580002 6:3.8310001 7:1.327 8:5.4990001 9:11.643 10:9.5570002 11:1.214 12:6.296 13:3.375 14:3.9059999 15:3.224 16:10.771 17:3.9820001 18:3.451 19:0.53100002 20:3.224 21:7.8390002 #
-0.50084865983712267833993792010006 1:3.0599999 2:0.61199999 3:4.079 4:6.119 5:5.099 6:4.691 7:1.428 8:10.199 9:10.403 10:5.915 11:1.836 12:8.7709999 13:2.652 14:3.2639999 15:4.079 16:3.875 17:5.099 18:4.895 19:0.204 20:5.303 21:8.4160004 #
3.5059406188598587483795654407004 1:8.4940004 2:0.54799998 3:4.9320002 4:6.302 5:4.9320002 6:7.3979998 7:3.2880001 8:5.2059999 9:3.562 10:7.1240001 11:2.1919999 12:2.4660001 13:4.658 14:4.3839998 15:2.74 16:7.9460001 17:7.6719999 18:5.7540002 19:1.37 20:1.6440001 21:7.3899999 #
-0.50084865983712267833993792010006 1:10.973 2:2.0580001 3:5.487 4:6.8579998 5:2.0580001 6:6.1729999 7:2.743 8:4.1149998 9:4.8010001 10:8.2299995 11:4.1149998 12:2.0580001 13:2.0580001 14:2.743 15:4.8010001 16:6.8579998 17:3.4289999 18:10.288 19:0.68599999 20:1.372 21:8.0970001 #
-0.50084865983712267833993792010006 1:12.097 2:0.67199999 3:4.704 4:7.3930001 5:3.3599999 6:5.3769999 7:1.344 8:6.7210002 9:4.704 10:13.441 11:3.3599999 12:2.688 13:4.704 14:4.0320001 15:2.688 16:4.704 17:4.704 18:4.0320001 19:0.67199999 20:1.344 21:7.2550001 #
-0.50084865983712267833993792010006 1:12.409 2:2.757 3:5.5149999 4:5.5149999 5:4.8260002 6:8.2720003 7:0 8:4.1360002 9:6.204 10:6.204 11:4.1360002 12:2.0680001 13:3.447 14:3.447 15:5.5149999 16:2.0680001 17:4.1360002 18:6.8940001 19:0 20:3.447 21:9.0039997 #
0.14866182844368902582488090047264 1:5.552 2:0.37 3:6.6620002 4:3.701 5:4.0710001 6:7.0320001 7:2.5910001 8:4.0710001 9:11.474 10:5.9219999 11:1.851 12:5.552 13:2.221 14:4.0710001 15:1.11 16:4.441 17:6.2919998 18:8.1429996 19:1.851 20:5.1820002 21:7.8410001 #
-0.50084865983712267833993792010006 1:6.2490001 2:1.4579999 3:6.2490001 4:4.3740001 5:1.666 6:12.706 7:3.1240001 8:4.5819998 9:3.1240001 10:6.4569998 11:1.666 12:2.9159999 13:3.3329999 14:4.1659999 15:4.3740001 16:8.54 17:4.5819998 18:7.0819998 19:2.9159999 20:2.0829999 21:8.3529997 #
-0.50084865983712267833993792010006 1:3.5250001 2:1.41 3:5.6399999 4:7.0500002 5:2.8199999 6:7.0500002 7:3.5250001 8:8.46 9:9.165 10:6.3449998 11:1.41 12:2.115 13:3.5250001 14:2.8199999 15:0.70499998 16:9.165 17:9.165 18:6.3449998 19:0.70499998 20:2.115 21:6.9439998 #
-0.50084865983712267833993792010006 1:7.0580001 2:1.516 3:6.1490002 4:5.9330001 5:5.4130001 6:6.2789998 7:1.689 8:6.842 9:4.677 10:8.2279997 11:3.075 12:4.027 13:3.681 14:2.7279999 15:3.984 16:5.8460002 17:4.5469999 18:6.0190001 19:1.516 20:3.075 21:7.7199998 #
0.47546058351396869312566195731051 1:13.168 2:0.23100001 3:5.7750001 4:3.234 5:2.079 6:8.3170004 7:0.92400002 8:2.5409999 9:4.3889999 10:10.165 11:3.003 12:2.5409999 13:4.8509998 14:4.158 15:6.006 16:5.3130002 17:3.4649999 18:6.9310002 19:1.386 20:3.4649999 21:8.0550003 #
-0.50084865983712267833993792010006 1:10.243 2:1.3660001 3:8.1940002 4:2.7309999 5:2.049 6:4.7800002 7:6.1459999 8:5.4629998 9:1.3660001 10:10.243 11:1.3660001 12:0 13:4.0970001 14:3.414 15:10.243 16:4.7800002 17:5.4629998 18:4.0970001 19:2.049 20:2.7309999 21:9.1789999 #
-0.50084865983712267833993792010006 1:19.028 2:0.70499998 3:9.8660002 4:4.2280002 5:2.819 6:6.3429999 7:1.409 8:2.1140001 9:2.1140001 10:10.571 11:1.409 12:2.819 13:1.409 14:2.819 15:5.638 16:2.1140001 17:4.9330001 18:6.3429999 19:2.1140001 20:2.819 21:8.3839998 #
-0.19803882994892763047545258814353 1:11.466 2:1.349 3:2.023 4:5.3959999 5:1.349 6:6.7449999 7:1.349 8:1.349 9:5.3959999 10:9.4420004 11:1.349 12:0.67400002 13:6.0700002 14:8.7679996 15:9.4420004 16:6.0700002 17:5.3959999 18:2.698 19:2.698 20:2.698 21:8.2740002 #
0.84148606790257995946546998311533 1:7.836 2:0 3:2.612 4:3.3239999 5:4.2740002 6:5.9359999 7:1.187 8:3.799 9:6.8860002 10:9.9729996 11:2.849 12:5.461 13:5.224 14:7.598 15:1.9 16:6.1739998 17:6.6490002 18:5.461 19:0.47499999 20:4.9860001 21:7.395 #
1.0401117695563499854216615858604 1:5.8699999 2:0.36700001 3:4.77 4:5.5040002 5:2.9349999 6:7.3379998 7:3.6689999 8:5.8699999 9:5.8699999 10:9.9060001 11:0.36700001 12:5.5040002 13:2.5680001 14:1.835 15:3.302 16:9.1730003 17:6.6040001 18:5.8699999 19:2.201 20:2.5680001 21:7.9070001 #
-0.50084865983712267833993792010006 1:8.0380001 2:0.63499999 3:4.23 4:9.3070002 5:4.8649998 6:5.2880001 7:1.058 8:5.4990001 9:8.0380001 10:8.8839998 11:1.058 12:6.5570002 13:3.3840001 14:3.1730001 15:3.3840001 16:6.1339998 17:4.6529999 18:4.4419999 19:0.212 20:3.1730001 21:7.9910002 #
-0.50084865983712267833993792010006 1:6.8239999 2:1.131 3:4.1729999 4:6.7069998 5:2.8859999 6:6.434 7:2.2620001 8:5.421 9:4.875 10:9.0469999 11:2.457 12:3.6659999 13:4.0949998 14:3.471 15:5.5770001 16:7.1750002 17:4.4070001 18:7.0970001 19:1.326 20:2.8080001 21:8.1630001 #
-0.50084865983712267833993792010006 1:9.5679998 2:0.68300003 3:2.734 4:8.2010002 5:6.8340001 6:4.1009998 7:2.05 8:4.7839999 9:6.8340001 10:8.8850002 11:3.4170001 12:3.4170001 13:2.05 14:5.4679999 15:2.734 16:8.8850002 17:6.151 18:5.4679999 19:0 20:0 21:7.7350001 #
-0.50084865983712267833993792010006 1:7.822 2:0.51599997 3:4.6849999 4:5.7179999 5:3.5339999 6:7.5040002 7:3.0179999 8:2.6600001 9:1.5089999 10:11.118 11:0.95300001 12:2.224 13:6.829 14:5.7969999 15:5.2410002 16:7.1469998 17:5.638 18:7.9809999 19:0.91299999 20:1.5880001 21:7.6040001 #
-0.50084865983712267833993792010006 1:11.471 2:2.711 3:2.9200001 4:3.5450001 5:2.9200001 6:6.257 7:0.83399999 8:4.7969999 9:2.086 10:9.802 11:1.043 12:3.3369999 13:5.4219999 14:2.503 15:6.257 16:5.4219999 17:6.257 18:9.5939999 19:3.128 20:2.711 21:6.9840002 #
-0.50084865983712267833993792010006 1:7.4749999 2:0 3:2.7179999 4:6.7950001 5:1.359 6:9.5129995 7:1.359 8:8.8339996 9:0 10:13.59 11:4.0770001 12:1.359 13:4.0770001 14:4.0770001 15:4.757 16:8.1540003 17:6.1160002 18:7.4749999 19:0 20:2.039 21:6.2270002 #
-0.50084865983712267833993792010006 1:8.3280001 2:2.082 3:5.8299999 4:4.164 5:5.2049999 6:5.4130001 7:1.874 8:3.3310001 9:5.6209998 10:8.3280001 11:2.707 12:5.4130001 13:3.539 14:3.7479999 15:3.7479999 16:7.079 17:5.4130001 18:4.3720002 19:1.874 20:3.9560001 21:7.9759998 #
-0.50084865983712267833993792010006 1:4.9330001 2:0.61699998 3:6.783 4:7.4000001 5:3.289 6:5.5500002 7:2.056 8:5.961 9:8.2220001 10:9.6610003 11:1.439 12:4.5219998 13:3.289 14:3.0829999 15:4.1110001 16:6.5780001 17:4.1110001 18:6.783 19:0.82200003 20:2.6719999 21:8.1169996 #
-0.50084865983712267833993792010006 1:3.819 2:0 3:5.3039999 4:6.789 5:5.9400001 6:4.6669998 7:1.697 8:9.5469999 9:9.9709997 10:7.8499999 11:1.909 12:5.9400001 13:2.546 14:4.243 15:4.243 16:3.6070001 17:3.3940001 18:6.789 19:0.42399999 20:3.1819999 21:8.1370001 #
-0.50084865983712267833993792010006 1:12.188 2:0.67699999 3:4.7399998 4:3.3859999 5:4.0630002 6:8.8030005 7:2.7079999 8:1.354 9:5.4169998 10:6.7709999 11:4.0630002 12:0.67699999 13:4.7399998 14:0.67699999 15:6.0939999 16:6.0939999 17:5.4169998 18:9.4799995 19:2.0309999 20:3.3859999 21:7.2350001 #
-0.50084865983712267833993792010006 1:8.6409998 2:0 3:11.11 4:9.2589998 5:3.086 6:8.2299995 7:2.0569999 8:3.2920001 9:2.4690001 10:4.7319999 11:1.4400001 12:2.4690001 13:4.1149998 14:2.263 15:7.4070001 16:2.8800001 17:5.1440001 18:8.0240002 19:1.4400001 20:2.8800001 21:9.0609999 #
-0.50084865983712267833993792010006 1:12.433 2:2.072 3:5.526 4:2.763 5:3.454 6:4.835 7:2.763 8:0.69099998 9:5.526 10:12.433 11:4.1440001 12:2.763 13:5.526 14:1.381 15:4.1440001 16:7.598 17:5.526 18:4.1440001 19:1.381 20:3.454 21:7.441 #
-0.50084865983712267833993792010006 1:6.6350002 2:1.244 3:4.5609999 4:5.1830001 5:4.1469998 6:6.427 7:2.073 8:7.0489998 9:3.9389999 10:8.2930002 11:2.6949999 12:5.3909998 13:4.7690001 14:2.6949999 15:4.9759998 16:7.0489998 17:6.842 18:3.1099999 19:0.62199998 20:4.1469998 21:8.1529999 #
-0.50084865983712267833993792010006 1:5.7620001 2:1.029 3:4.1160002 4:5.145 5:3.704 6:5.9679999 7:2.4690001 8:5.9679999 9:5.9679999 10:9.2609997 11:1.029 12:2.881 13:8.026 14:3.704 15:3.0869999 16:6.7909999 17:5.145 18:6.1739998 19:1.441 20:4.322 21:8.0109997 #
-0.50084865983712267833993792010006 1:5.4310002 2:0.62699997 3:5.4310002 4:2.7149999 5:3.9690001 6:6.684 7:1.88 8:6.2659998 9:4.8039999 10:7.1020002 11:2.089 12:7.5190001 13:2.924 14:3.342 15:3.1329999 16:7.1020002 17:12.115 18:4.3860002 19:0.62699997 20:4.3860002 21:7.4699998 #
-0.50084865983712267833993792010006 1:10.9 2:1.258 3:4.8210001 4:8.3850002 5:1.048 6:5.6599998 7:1.048 8:6.4980001 9:6.7080002 10:7.3369999 11:2.096 12:3.3540001 13:2.096 14:5.2410002 15:5.0310001 16:4.1919999 17:6.079 18:7.1269999 19:0.838 20:2.096 21:8.1850004 #
-0.50084865983712267833993792010006 1:7.2059999 2:1.029 3:6.3829999 4:7.2059999 5:4.3239999 6:9.2650003 7:2.8829999 8:4.941 9:1.853 10:5.1469998 11:2.2650001 12:2.2650001 13:4.941 14:2.059 15:4.941 16:6.3829999 17:7.2059999 18:7.618 19:0.412 20:3.5 21:8.1709995 #
-0.50084865983712267833993792010006 1:7.2740002 2:0.83099997 3:4.7800002 4:8.7290001 5:3.1170001 6:7.066 7:2.9100001 8:5.8189998 9:2.7019999 10:8.1049995 11:2.494 12:3.325 13:3.7409999 14:3.7409999 15:6.8579998 16:4.3639998 17:4.1570001 18:7.066 19:0.83099997 20:3.7409999 21:8.3470001 #
1.9038134465982685661344930849737 1:6.1100001 2:0.45300001 3:1.584 4:3.168 5:5.6570001 6:6.336 7:1.131 8:7.2410002 9:7.0149999 10:9.9560003 11:1.8099999 12:6.5619998 13:5.204 14:4.7519999 15:4.073 16:5.204 17:5.6570001 18:5.204 19:0.90499997 20:4.073 21:7.9029999 #
-0.4532483308548732603426856258011 1:2.1170001 2:2.823 3:1.411 4:4.2340002 5:4.2340002 6:2.1170001 7:2.823 8:8.4680004 9:8.4680004 10:11.29 11:2.1170001 12:7.0570002 13:2.823 14:2.823 15:3.5280001 16:7.7620001 17:4.9400001 18:4.9400001 19:2.823 20:4.9400001 21:8.2650003 #
-0.50084865983712267833993792010006 1:8.1300001 2:0 3:0 4:2.71 5:4.0650001 6:6.0970001 7:3.3870001 8:4.0650001 9:8.8070002 10:8.1300001 11:2.0320001 12:4.0650001 13:4.7420001 14:3.3870001 15:6.7750001 16:8.8070002 17:7.4520001 18:7.4520001 19:0 20:2.0320001 21:7.8610001 #
-0.50084865983712267833993792010006 1:4.697 2:1.428 3:4.329 4:4.974 5:2.901 6:3.684 7:0.78299999 8:7.967 9:7.046 10:9.3030005 11:1.428 12:8.3809996 13:4.421 14:6.585 15:2.809 16:9.21 17:6.632 18:4.053 19:0.64499998 20:1.428 21:7.2969999 #
-0.50084865983712267833993792010006 1:6.0970001 2:2.0320001 3:4.7420001 4:6.0970001 5:6.0970001 6:8.8070002 7:2.71 8:4.7420001 9:3.3870001 10:12.194 11:2.0320001 12:2.0320001 13:3.3870001 14:2.71 15:3.3870001 16:4.7420001 17:3.3870001 18:7.4520001 19:3.3870001 20:3.3870001 21:7.1919999 #
-0.50084865983712267833993792010006 1:8.4510002 2:0.206 3:5.3590002 4:5.1529999 5:2.0610001 6:5.9770002 7:3.2980001 8:3.71 9:2.473 10:12.985 11:1.237 12:4.3280001 13:4.3280001 14:5.3590002 15:7.8330002 16:4.5349998 17:3.2980001 18:6.184 19:2.267 20:2.267 21:8.6890001 #
-0.50084865983712267833993792010006 1:9.375 2:1.0190001 3:5.7069998 4:3.872 5:3.0569999 6:6.5219998 7:3.6689999 8:4.4840002 9:1.0190001 10:14.063 11:2.4460001 12:0.815 13:6.3179998 14:3.2609999 15:9.9870005 16:3.0569999 17:4.2800002 18:5.7069998 19:1.631 20:0.815 21:8.8950005 #
-0.50084865983712267833993792010006 1:10.763 2:2.691 3:6.7270002 4:6.7270002 5:2.0179999 6:5.382 7:0.67299998 8:4.7090001 9:10.763 10:5.382 11:1.345 12:3.3640001 13:5.382 14:1.345 15:3.3640001 16:4.7090001 17:6.7270002 18:8.0719995 19:0.67299998 20:0 21:9.1850004 #
-0.50084865983712267833993792010006 1:7.73 2:1.462 3:2.925 4:3.5510001 5:9.401 6:7.73 7:0.83600003 8:8.1470003 9:3.342 10:10.027 11:2.089 12:3.9690001 13:2.2980001 14:2.7160001 15:2.089 16:9.6099997 17:5.223 18:6.2670002 19:1.253 20:3.1340001 21:6.2010002 #
-0.50084865983712267833993792010006 1:6.0869999 2:0 3:4.7340002 4:5.4109998 5:1.353 6:7.4400001 7:3.382 8:5.4109998 9:10.145 10:4.0580001 11:2.7049999 12:1.353 13:2.029 14:2.029 15:4.0580001 16:4.7340002 17:8.1160002 18:11.498 19:2.7049999 20:4.0580001 21:8.6929998 #
-0.50084865983712267833993792010006 1:7.8119998 2:1.2410001 3:5.3769999 4:4.7789998 5:4.5489998 6:6.4790001 7:1.8380001 8:5.1469998 9:4.5029998 10:8.2720003 11:2.0220001 12:4.1360002 13:4.0900002 14:3.9519999 15:5.3309999 16:8.2259998 17:4.5029998 18:5.5599999 19:0.96499997 20:3.355 21:7.8629999 #
-0.50084865983712267833993792010006 1:3.3889999 2:0 3:6.7789998 4:3.3889999 5:5.4229999 6:4.7449999 7:1.3559999 8:8.1339998 9:4.0669999 10:9.4899998 11:5.4229999 12:4.0669999 13:5.4229999 14:0.67799997 15:2.0339999 16:8.8120003 17:4.7449999 18:7.4569998 19:1.3559999 20:6.1009998 21:7.1329999 #
-0.50084865983712267833993792010006 1:13.343 2:0.70200002 3:2.1070001 4:3.5109999 5:4.2140002 6:14.045 7:2.809 8:6.3200002 9:1.405 10:12.641 11:1.405 12:0.70200002 13:4.9159999 14:4.2140002 15:2.1070001 16:7.7249999 17:4.2140002 18:5.618 19:0.70200002 20:1.405 21:5.8969998 #
-0.50084865983712267833993792010006 1:12.602 2:2.6860001 3:7.4369998 4:3.925 5:2.2720001 6:9.2959995 7:0.62 8:2.2720001 9:1.033 10:10.949 11:1.653 12:1.859 13:6.6110001 14:1.033 15:7.2309999 16:4.5450001 17:3.925 18:8.2639999 19:0.62 20:2.892 21:8.2749996 #
-0.50084865983712267833993792010006 1:13.086 2:0.62300003 3:4.7779999 4:4.1539998 5:1.039 6:10.386 7:3.3239999 8:0.83099997 9:0.208 10:8.724 11:0.41499999 12:1.039 13:8.724 14:5.6079998 15:11.009 16:3.947 17:4.362 18:8.309 19:0.208 20:0.41499999 21:8.8109999 #
-0.50084865983712267833993792010006 1:14.2 2:0 3:3.55 4:5.6799998 5:1.42 6:2.1300001 7:4.2600002 8:4.9699998 9:0.70999998 10:9.9399996 11:1.42 12:0 13:5.6799998 14:4.2600002 15:7.0999999 16:7.0999999 17:5.6799998 18:7.8099999 19:4.9699998 20:1.42 21:7.7030001 #
-0.50084865983712267833993792010006 1:4.4050002 2:0.83899999 3:6.2930002 4:6.7119999 5:4.4050002 6:5.664 7:2.727 8:5.8730001 9:7.7610002 10:10.488 11:1.678 12:3.3559999 13:3.566 14:3.776 15:5.664 16:4.1950002 17:5.0339999 18:4.6149998 19:1.2589999 20:2.727 21:8.9639997 #
-0.50084865983712267833993792010006 1:6.572 2:2.5439999 3:7.4200001 4:8.9029999 5:2.756 6:9.1149998 7:2.332 8:2.1199999 9:2.9679999 10:8.2679996 11:1.484 12:1.696 13:4.4520001 14:3.392 15:2.756 16:6.572 17:6.7839999 18:8.691 19:2.332 20:1.0599999 21:7.7859998 #
-0.50084865983712267833993792010006 1:8.0220003 2:2.006 3:5.348 4:4.0110002 5:2.674 6:7.3540001 7:2.674 8:2.674 9:3.3429999 10:6.6849999 11:2.006 12:4.0110002 13:6.6849999 14:3.3429999 15:6.6849999 16:5.348 17:8.0220003 18:6.6849999 19:2.006 20:2.006 21:8.4119997 #
-0.50084865983712267833993792010006 1:3.072 2:1.138 3:5.158 4:8.6090002 5:3.527 6:4.323 7:1.441 8:9.1020002 9:8.9499998 10:8.684 11:3.6029999 12:5.8400002 13:1.744 14:2.237 15:4.2090001 16:6.75 17:4.3990002 18:4.2849998 19:0.75800002 20:3.7539999 21:8.4160004 #
-0.50084865983712267833993792010006 1:5.0190001 2:0 3:2.151 4:3.585 5:4.302 6:3.585 7:0.71700001 8:14.339 9:8.6040001 10:5.7360001 11:1.434 12:10.755 13:2.868 14:2.151 15:0 16:10.038 17:5.7360001 18:5.7360001 19:0.71700001 20:5.7360001 21:6.7930002 #
-0.50084865983712267833993792010006 1:8.2679996 2:1.286 3:5.5120001 4:6.7069998 5:2.3889999 6:4.5939999 7:1.332 8:4.5479999 9:7.579 10:10.382 11:2.618 12:3.1700001 13:4.5019999 14:2.8940001 15:5.007 16:7.4879999 17:5.007 18:6.3850002 19:0.96499997 20:1.102 21:8.2659998 #
-0.50084865983712267833993792010006 1:8.3409996 2:1.71 3:4.5879998 4:4.796 5:3.9619999 6:6.2969999 7:2.0439999 8:4.4619999 9:5.2550001 10:9.092 11:2.3770001 12:3.1700001 13:4.7540002 14:3.5869999 15:5.5469999 16:6.756 17:3.5869999 18:6.9650002 19:1.043 20:3.2950001 21:8.3739996 #
-0.50084865983712267833993792010006 1:8.1429996 2:2.201 3:4.3140001 4:5.5019999 5:4.3579998 6:6.559 7:1.409 8:5.546 9:4.842 10:8.7150002 11:1.717 12:3.1689999 13:4.1820002 14:2.773 15:5.8099999 16:7.0430002 17:4.5339999 18:6.691 19:1.232 20:2.8610001 21:8.3999996 #
-0.50084865983712267833993792010006 1:6.1069999 2:2.527 3:4.211 4:5.0539999 5:4.4219999 6:10.95 7:2.316 8:4.8429999 9:6.7379999 10:7.1589999 11:2.316 12:3.369 13:3.5799999 14:2.1059999 15:5.8959999 16:7.3699999 17:3.1589999 18:6.3169999 19:2.1059999 20:0.84200001 21:8.6120005 #
3.163247096462378671333226520801 1:9.3889999 2:0.46900001 3:5.3990002 4:4.9289999 5:2.8169999 6:7.5110002 7:3.286 8:4.9289999 9:3.286 10:9.1540003 11:2.3469999 12:3.286 13:4.46 14:2.8169999 15:5.868 16:5.3990002 17:4.6939998 18:6.1030002 19:0.704 20:4.6939998 21:8.4580002 #
-0.50084865983712267833993792010006 1:3.516 2:0.207 3:5.7909999 4:9.3070002 5:6.619 6:4.1370001 7:1.448 8:8.2729998 9:11.996 10:9.7209997 11:1.034 12:4.3429999 13:2.6889999 14:0.62 15:3.723 16:3.516 17:2.2750001 18:4.5500002 19:1.2410001 20:5.7909999 21:9.2019997 #
-0.45088002637441892961334133360651 1:18.752001 2:5.5560002 3:2.7780001 4:4.1669998 5:2.0840001 6:9.0290003 7:0.69499999 8:2.7780001 9:4.1669998 10:11.112 11:0.69499999 12:6.9450002 13:2.7780001 14:1.3890001 15:0.69499999 16:6.9450002 17:8.3339996 18:4.862 19:0 20:0 21:6.2420001 #
-0.50084865983712267833993792010006 1:3.395 2:2.7160001 3:4.0739999 4:4.7529998 5:4.0739999 6:7.4689999 7:1.358 8:4.0739999 9:6.1110001 10:10.864 11:2.0369999 12:3.395 13:0.67900002 14:5.4320002 15:3.395 16:8.1479998 17:10.185 18:4.0739999 19:2.0369999 20:4.0739999 21:7.658 #
-0.50084865983712267833993792010006 1:7.2249999 2:0.52499998 3:5.2870002 4:7.507 5:3.148 6:5.4489999 7:2.9460001 8:5.5700002 9:4.3990002 10:10.857 11:2.3010001 12:3.3900001 13:4.3990002 14:4.6820002 15:5.085 16:3.915 17:4.6009998 18:6.0539999 19:1.13 20:3.2690001 21:8.2600002 #
-0.50084865983712267833993792010006 1:12.211 2:1.357 3:6.1059999 4:6.1059999 5:3.392 6:6.7839999 7:2.0350001 8:2.714 9:8.1409998 10:9.4980001 11:2.0350001 12:0.67799997 13:2.0350001 14:2.0350001 15:4.7490001 16:7.4619999 17:2.714 18:8.8190002 19:0.67799997 20:2.714 21:7.737 #
-0.50084865983712267833993792010006 1:7.1589999 2:3.579 3:4.632 4:4.632 5:2.527 6:7.1589999 7:3.158 8:6.1059999 9:4 10:9.0539999 11:0.84200001 12:1.895 13:4.632 14:4.8429999 15:5.6849999 16:4.632 17:5.895 18:6.1059999 19:1.474 20:3.579 21:8.4110003 #
2.4183825799604523609787065652199 1:8.0799999 2:0.83600003 3:5.2940001 4:3.622 5:3.622 6:6.1290002 7:0.55699998 8:6.1290002 9:5.8509998 10:8.0799999 11:2.786 12:4.7360001 13:2.786 14:5.0149999 15:3.3429999 16:8.0799999 17:6.9650002 18:6.6869998 19:1.393 20:2.5079999 21:7.5009999 #
-0.50084865983712267833993792010006 1:11.517 2:0 3:2.8789999 4:7.198 5:0.72000003 6:5.039 7:0.72000003 8:7.198 9:4.3189998 10:5.039 11:5.7589998 12:5.039 13:6.4790001 14:4.3189998 15:1.4400001 16:8.6379995 17:9.3579998 18:7.198 19:0 20:0.72000003 21:6.421 #
-0.50084865983712267833993792010006 1:8.2349997 2:2.7449999 3:6.8629999 4:2.059 5:2.059 6:4.118 7:2.059 8:8.9219999 9:6.177 10:8.2349997 11:2.7449999 12:6.177 13:2.059 14:3.431 15:3.431 16:10.981 17:5.4899998 18:4.8039999 19:0.68599999 20:0.68599999 21:8.0380001 #
-0.50084865983712267833993792010006 1:2.9100001 2:0.62400001 3:4.7810001 4:3.326 5:4.7810001 6:2.7030001 7:0.83200002 8:10.602 9:5.6129999 10:7.6919999 11:2.2869999 12:8.9390001 13:6.652 14:4.7810001 15:2.2869999 16:6.237 17:9.5629997 18:4.158 19:0.208 20:3.5339999 21:7.4889998 #
-0.50084865983712267833993792010006 1:8.901 2:1.0599999 3:4.8740001 4:2.7550001 5:4.4510002 6:9.9610004 7:0.63599998 8:6.7820001 9:1.6950001 10:5.2979999 11:2.119 12:6.5700002 13:4.6620002 14:2.119 15:2.967 16:7.6290002 17:7.8410001 18:7.6290002 19:0.42399999 20:4.6620002 21:6.9629998 #
-0.50084865983712267833993792010006 1:7.099 2:1.044 3:5.0110002 4:6.8909998 5:2.714 6:7.5170002 7:1.462 8:4.5939999 9:5.4289999 10:8.7700005 11:1.253 12:2.714 13:5.8460002 14:3.55 15:6.6820002 16:6.0549998 17:5.0110002 18:7.099 19:1.044 20:1.8789999 21:8.335 #
-0.50084865983712267833993792010006 1:4.0500002 2:4.0500002 3:4.0500002 4:4.7259998 5:4.0500002 6:9.4510002 7:4.0500002 8:5.401 9:4.7259998 10:8.1009998 11:3.375 12:3.375 13:5.401 14:3.375 15:1.35 16:2.0250001 17:6.0760002 18:6.0760002 19:2.0250001 20:6.0760002 21:8.1890001 #
-0.50084865983712267833993792010006 1:8.9940004 2:1.464 3:2.092 4:3.974 5:4.3930001 6:5.6479998 7:2.7190001 8:3.974 9:3.556 10:11.504 11:2.928 12:2.928 13:8.3669996 14:5.2290001 15:5.6479998 16:5.8569999 17:4.3930001 18:5.2290001 19:2.092 20:1.255 21:7.756 #
-0.38211018469427737720423010614468 1:8.6789999 2:0.41299999 3:6.8189998 4:6.1989999 5:2.8929999 6:7.026 7:2.273 8:4.546 9:5.7859998 10:4.9590001 11:1.24 12:4.9590001 13:2.8929999 14:3.099 15:4.9590001 16:11.571 17:5.579 18:6.4060001 19:0.62 20:1.446 21:7.6350002 #
-0.50084865983712267833993792010006 1:5.4070001 2:0 3:4.783 4:6.447 5:5.1989999 6:3.3269999 7:1.248 8:7.2789998 9:7.0710001 10:10.606 11:2.0799999 12:4.9910002 13:1.872 14:4.1589999 15:4.783 16:7.487 17:6.447 18:6.2389998 19:0.41600001 20:2.4960001 21:7.6620002 #
-0.50084865983712267833993792010006 1:3.4059999 2:1.362 3:4.7680001 4:7.493 5:4.7680001 6:4.7680001 7:2.043 8:11.58 9:9.5360003 10:8.1739998 11:3.4059999 12:5.4489999 13:2.7249999 14:2.7249999 15:3.4059999 16:2.043 17:5.4489999 18:7.493 19:0 20:2.043 21:7.3639998 #
-0.50084865983712267833993792010006 1:13.777 2:0 3:2.0669999 4:6.888 5:6.1999998 6:6.888 7:0.68900001 8:3.444 9:4.822 10:8.2659998 11:2.7550001 12:7.5770001 13:1.378 14:6.888 15:6.1999998 16:4.822 17:4.1329999 18:2.0669999 19:0.68900001 20:2.0669999 21:8.3839998 #
-0.50084865983712267833993792010006 1:7.8569999 2:1.447 3:6.2030001 4:5.1690001 5:3.7219999 6:4.9619999 7:1.2410001 8:4.1350002 9:5.3759999 10:9.9239998 11:4.1350002 12:5.1690001 13:2.688 14:2.895 15:6.2030001 16:5.1690001 17:5.5819998 18:4.9619999 19:0.414 20:4.5489998 21:8.1999998 #
-0.50084865983712267833993792010006 1:3.0780001 2:0.205 3:5.335 4:8.4130001 5:5.335 6:3.4879999 7:2.257 8:7.7969999 9:9.849 10:9.849 11:1.847 12:4.309 13:3.0780001 14:3.4879999 15:3.4879999 16:5.1300001 17:3.0780001 18:4.5139999 19:1.2309999 20:5.9499998 21:8.2810001 #
-0.50084865983712267833993792010006 1:2.0439999 2:1.619 3:4.8559999 4:6.9000001 5:4.0040002 6:4.9829998 7:2.0439999 8:7.7940001 9:7.5809999 10:10.094 11:2.3 12:6.2610002 13:2.8959999 14:2.8540001 15:4.77 16:7.283 17:3.961 18:3.7479999 19:1.874 20:3.45 21:8.6820002 #
-0.25147751142150831515920117453788 1:3.8889999 2:1.433 3:5.526 4:6.7540002 5:4.5029998 6:2.865 7:1.228 8:4.9120002 9:9.21 10:7.572 11:1.433 12:6.5489998 13:4.9120002 14:2.865 15:4.5029998 16:6.3449998 17:5.1170001 18:6.1399999 19:1.228 20:4.5029998 21:8.5159998 #
-0.29181109494970763895693721678981 1:13.054 2:4.1220002 3:4.8099999 4:6.8709998 5:2.0610001 6:4.8099999 7:4.1220002 8:4.8099999 9:0.68699998 10:9.6190004 11:2.7479999 12:3.4349999 13:3.4349999 14:6.184 15:1.374 16:5.4970002 17:2.0610001 18:10.306 19:2.0610001 20:0.68699998 21:7.2449999 #
-0.50084865983712267833993792010006 1:10.405 2:0.41600001 3:5.8270001 4:4.3699999 5:2.289 6:6.0349998 7:1.249 8:4.1620002 9:1.457 10:13.942 11:1.457 12:1.249 13:6.4510002 14:2.497 15:8.948 16:6.243 17:5.4099998 18:5.8270001 19:1.665 20:1.873 21:8.2309999 #
-0.50084865983712267833993792010006 1:8.2860003 2:0.69 3:6.2140002 4:2.7620001 5:5.5240002 6:4.8330002 7:2.7620001 8:8.2860003 9:4.8330002 10:6.2140002 11:2.0710001 12:6.2140002 13:4.1430001 14:4.8330002 15:6.2140002 16:3.4519999 17:4.8330002 18:6.2140002 19:0 20:3.4519999 21:8.165 #
-0.39796393356400583396492720567039 1:6.211 2:0 3:2.0699999 4:4.8309999 5:5.5209999 6:3.45 7:5.5209999 8:7.5910001 9:4.8309999 10:11.041 11:2.0699999 12:1.38 13:4.8309999 14:3.45 15:2.76 16:6.901 17:5.5209999 18:6.901 19:4.1399999 20:4.1399999 21:6.8400002 #
-0.30473302908164701108262306661345 1:5.5359998 2:2.342 3:3.194 4:5.9619999 5:5.9619999 6:4.046 7:1.916 8:10.008 9:4.684 10:8.9429998 11:1.278 12:7.027 13:3.4070001 14:3.8329999 15:2.5550001 16:7.027 17:4.8969998 18:5.323 19:0.639 20:3.6199999 21:7.8010001 #
-0.50084865983712267833993792010006 1:6.6399999 2:0.396 3:6.9920001 4:6.1560001 5:3.122 6:6.112 7:1.847 8:5.8920002 9:3.9579999 10:8.7950001 11:1.803 12:2.902 13:5.9359999 14:3.914 15:4.9250002 16:9.2779999 17:5.2329998 18:6.1560001 19:0.484 20:1.539 21:7.921 #
-0.50084865983712267833993792010006 1:9.717 2:0 3:8.3290005 4:4.164 5:2.776 6:4.8579998 7:0.69400001 8:6.2470002 9:4.164 10:9.0229998 11:3.47 12:1.388 13:5.553 14:4.164 15:4.8579998 16:10.411 17:3.47 18:5.553 19:1.388 20:2.082 21:7.6900001 #
-0.50084865983712267833993792010006 1:6.8629999 2:2.0799999 3:5.6149998 4:4.783 5:4.783 6:6.447 7:3.3280001 8:2.9119999 9:6.0310001 10:9.151 11:1.456 12:2.9119999 13:4.1599998 14:3.744 15:5.823 16:5.1989999 17:3.744 18:8.5270004 19:1.456 20:2.704 21:8.2819996 #
-0.50084865983712267833993792010006 1:4.033 2:1.344 3:8.7390003 4:6.0500002 5:3.3610001 6:7.395 7:0.67199999 8:3.3610001 9:7.395 10:6.7220001 11:4.7059999 12:4.7059999 13:2.017 14:4.033 15:4.033 16:6.0500002 17:5.3779998 18:7.395 19:0.67199999 20:4.033 21:7.902 #
-0.24054321533279449107922687289829 1:11.403 2:1.425 3:2.8510001 4:4.276 5:3.5639999 6:6.414 7:0 8:4.276 9:4.9889998 10:3.5639999 11:2.138 12:7.8400002 13:3.5639999 14:3.5639999 15:2.8510001 16:7.8400002 17:6.414 18:11.403 19:1.425 20:2.8510001 21:7.348 #
-0.44382653589683029871082453610143 1:2.7360001 2:1.349 3:7.085 4:5.3600001 5:2.849 6:4.461 7:1.874 8:6.3720002 9:6.8969998 10:6.7470002 11:2.437 12:11.208 13:4.4229999 14:2.9990001 15:3.1860001 16:7.8340001 17:4.723 18:5.0229998 19:0.375 20:3.973 21:8.0869999 #
-0.50084865983712267833993792010006 1:7.723 2:1.8789999 3:2.714 4:4.592 5:5.0100002 6:5.0100002 7:1.461 8:8.9759998 9:3.131 10:9.6020002 11:3.131 12:3.549 13:3.757 14:2.9219999 15:6.2620001 16:4.3839998 17:5.0100002 18:6.2620001 19:3.757 20:2.9219999 21:7.9460001 #
-0.50084865983712267833993792010006 1:5.349 2:0.61699998 3:4.526 4:5.349 5:4.3200002 6:7.2010002 7:2.263 8:4.526 9:4.7319999 10:7.2010002 11:2.675 12:3.9089999 13:6.1719999 14:3.086 15:6.789 16:4.1149998 17:6.789 18:8.2290001 19:0.61699998 20:3.086 21:8.4499998 #
-0.50084865983712267833993792010006 1:8.1160002 2:3.3299999 3:3.3299999 4:4.3699999 5:4.1620002 6:7.6999998 7:3.3299999 8:4.9949999 9:4.1620002 10:12.695 11:1.457 12:1.457 13:3.954 14:3.954 15:4.3699999 16:7.4920001 17:3.7460001 18:5.8270001 19:1.457 20:2.7049999 21:7.3909998 #
0.31833647876472503934763835786725 1:4.1110001 2:0 3:4.8369999 4:4.8369999 5:3.3859999 6:4.3530002 7:2.177 8:11.609 9:9.6739998 10:8.9490004 11:2.177 12:7.256 13:2.902 14:2.4189999 15:0.72600001 16:8.7069998 17:5.8039999 18:3.1440001 19:1.209 20:4.3530002 21:7.3709998 #
-0.39034257217415929686055164893332 1:2.7409999 2:0 3:4.1110001 4:8.9069996 5:4.1110001 6:4.1110001 7:1.37 8:12.333 9:15.759 10:4.1110001 11:1.37 12:7.5370002 13:1.37 14:2.0550001 15:1.37 16:5.4809999 17:1.37 18:5.4809999 19:2.0550001 20:5.4809999 21:8.8730001 #
-0.50084865983712267833993792010006 1:12.33 2:0 3:5.48 4:4.1100001 5:3.425 6:4.7950001 7:1.37 8:5.48 9:12.33 10:7.5349998 11:2.0550001 12:2.74 13:1.37 14:0.685 15:6.8499999 16:4.7950001 17:3.425 18:10.275 19:0.685 20:1.37 21:8.8950005 #
-0.50084865983712267833993792010006 1:7.0890002 2:1.824 3:3.8139999 4:6.1350002 5:5.3889999 6:5.5960002 7:1.7410001 8:6.4250002 9:4.27 10:9.4099998 11:2.2390001 12:4.4770002 13:4.6009998 14:3.3989999 15:5.0570002 16:6.5910001 17:4.7670002 18:5.638 19:1.161 20:2.4460001 21:7.9310002 #
-0.50084865983712267833993792010006 1:6.5700002 2:2.7550001 3:3.6029999 4:4.4510002 5:4.2389998 6:4.875 7:2.119 8:3.6029999 9:4.027 10:10.173 11:2.3310001 12:2.3310001 13:6.5700002 14:3.1789999 15:2.967 16:6.1459999 17:8.0539999 18:8.901 19:2.3310001 20:2.967 21:7.8060002 #
-0.24372540656490937482914205247653 1:10.405 2:1.48 3:2.332 4:3.7219999 5:0.89700001 6:7.1760001 7:1.525 8:3.767 9:3.2290001 10:6.4130001 11:1.794 12:2.915 13:8.835 14:5.4710002 15:2.332 16:8.4759998 17:12.602 18:8.2969999 19:0.80699998 20:1.256 21:6.2690001 #
-0.49448332715641984957954946366954 1:7.7940001 2:1.2309999 3:4.5120001 4:5.743 5:4.5120001 6:5.3330002 7:1.641 8:3.6919999 9:6.1529999 10:9.0240002 11:1.2309999 12:3.8970001 13:5.948 14:2.461 15:4.5120001 16:10.665 17:5.1279998 18:5.5380001 19:1.026 20:1.641 21:8.3199997 #
-0.50084865983712267833993792010006 1:5.783 2:0.207 3:7.2280002 4:9.0869999 5:3.717 6:2.4779999 7:2.0650001 8:4.3369999 9:11.359 10:10.533 11:1.652 12:6.402 13:2.4779999 14:4.75 15:2.891 16:3.098 17:4.9569998 18:3.924 19:0.41299999 20:4.3369999 21:8.3030005 #
-0.25808455013106579301052079244982 1:0.67799997 2:0.67799997 3:1.357 4:6.105 5:2.0350001 6:4.7480001 7:1.357 8:10.853 9:12.888 10:8.1389999 11:0.67799997 12:6.783 13:4.0700002 14:0.67799997 15:6.783 16:7.461 17:3.391 18:5.4260001 19:1.357 20:6.105 21:8.4309998 #
-0.36059131116756365509345982900413 1:13.985 2:0.699 3:4.1960001 4:6.2930002 5:4.1960001 6:6.993 7:1.399 8:6.993 9:6.993 10:2.098 11:4.1960001 12:2.098 13:4.895 14:1.399 15:2.098 16:2.098 17:6.993 18:9.79 19:1.399 20:3.4960001 21:7.6989999 #
-0.35090647736207392082263822885579 1:9.9619999 2:0 3:3.5580001 4:1.423 5:2.846 6:8.5389996 7:12.097 8:0.71200001 9:2.135 10:12.097 11:1.423 12:2.135 13:7.1160002 14:1.423 15:9.9619999 16:4.9809999 17:4.9809999 18:4.9809999 19:1.423 20:1.423 21:6.7820001 #
-0.14010698507297808523830440208258 1:10.285 2:3.428 3:6.171 4:6.8559999 5:2.743 6:10.285 7:1.3710001 8:5.4850001 9:4.7989998 10:5.4850001 11:2.743 12:1.3710001 13:2.743 14:2.0569999 15:6.8559999 16:6.8559999 17:1.3710001 18:5.4850001 19:0.68599999 20:3.428 21:9.4960003 #
-0.50084865983712267833993792010006 1:4.2670002 2:1.4220001 3:5.4860001 4:5.4860001 5:4.4699998 6:6.0949998 7:2.438 8:5.8920002 9:6.0949998 10:7.9239998 11:1.829 12:5.6890001 13:5.6890001 14:1.625 15:5.8920002 16:5.0799999 17:5.6890001 18:4.4699998 19:0.61000001 20:5.0799999 21:8.7720003 #
-0.50084865983712267833993792010006 1:5.5149999 2:2.158 3:5.4349999 4:5.1550002 5:3.6370001 6:6.434 7:2.598 8:4.5159998 9:5.1149998 10:7.473 11:1.7180001 12:4.6760001 13:5.5949998 14:2.997 15:4.4759998 16:7.1129999 17:4.756 18:5.1550002 19:2.2780001 20:4.5560002 21:8.6450005 #
-0.50084865983712267833993792010006 1:5.6339998 2:0.29699999 3:4.559 4:5.967 5:3.6689999 6:5.2259998 7:1.334 8:7.7470002 9:4.151 10:9.6739998 11:2.2609999 12:6.8569999 13:3.9660001 14:5.0780001 15:5.7820001 16:5.0409999 17:5.1149998 18:5.263 19:0.63 20:3.484 21:8.2639999 #
-0.34496652798810190088119043139159 1:13.353 2:0 3:2.8110001 4:8.434 5:2.108 6:7.7309999 7:0.70300001 8:4.9200001 9:9.1359997 10:4.9200001 11:3.5139999 12:3.5139999 13:4.9200001 14:5.6220002 15:4.217 16:4.9200001 17:2.8110001 18:4.9200001 19:0 20:3.5139999 21:7.9320002 #
-0.42952640515926754360975792224053 1:11.653 2:0.685 3:2.7420001 4:6.1690001 5:3.427 6:4.7979999 7:1.3710001 8:3.427 9:4.1129999 10:8.2259998 11:0.685 12:2.056 13:9.5970001 14:2.056 15:9.5970001 16:4.1129999 17:6.855 18:4.1129999 19:1.3710001 20:4.1129999 21:8.8310003 #
-0.05587768565014331056950425136165 1:5.3460002 2:2.8789999 3:5.9629998 4:7.6079998 5:3.9070001 6:5.9629998 7:3.4960001 8:3.701 9:4.5240002 10:9.6639996 11:2.2620001 12:1.234 13:4.3179998 14:5.3460002 15:2.6730001 16:5.757 17:6.3740001 18:6.5799999 19:2.056 20:2.467 21:7.881 #
-0.22142123360416846034048887759127 1:9.4490004 2:0 3:1.454 4:2.9070001 5:5.0879998 6:5.8150001 7:0.727 8:5.8150001 9:2.9070001 10:7.9949999 11:1.454 12:6.5409999 13:12.356 14:6.5409999 15:2.1800001 16:7.9949999 17:11.629 18:2.1800001 19:0 20:0.727 21:6.2399998 #
-0.29435613035027924366815454959578 1:7 2:0 3:2.8 4:6.3000002 5:0 6:4.9000001 7:0 8:6.3000002 9:5.5999999 10:9.099 11:7.6989999 12:7 13:7.6989999 14:3.5 15:1.4 16:4.1999998 17:7 18:11.199 19:0 20:2.0999999 21:6.2059999 #
-0.32170882691974123090972170757595 1:2.655 2:1.9910001 3:8.6300001 4:5.3109999 5:3.319 6:0 7:1.9910001 8:10.621 9:9.2930002 10:7.302 11:1.9910001 12:11.285 13:0 14:1.3279999 15:1.9910001 16:6.638 17:8.6300001 18:1.9910001 19:0.66399997 20:5.974 21:8.3940001 #
0.71842087156895373389886572113028 1:7.54 2:0.65600002 3:4.9169998 4:4.5900002 5:4.2620001 6:6.8839998 7:1.311 8:5.901 9:6.8839998 10:8.5240002 11:2.95 12:3.2780001 13:3.2780001 14:6.5570002 15:3.2780001 16:4.9169998 17:4.2620001 18:6.8839998 19:1.6390001 20:3.2780001 21:8.2080002 #
-0.056259231948247112597982777515426 1:6.1360002 2:1.364 3:5.454 4:6.1360002 5:3.4089999 6:10.909 7:1.364 8:6.1360002 9:2.0450001 10:8.1809998 11:0.68199998 12:1.364 13:6.1360002 14:0 15:9.5450001 16:3.4089999 17:2.727 18:10.909 19:0 20:4.0910001 21:10.004 #
-0.067460013263554260976029297580681 1:10.689 2:0 3:4.0089998 4:3.3399999 5:1.336 6:6.6810002 7:2.0039999 8:1.336 9:0.66799998 10:15.366 11:1.336 12:2.0039999 13:6.013 14:8.6850004 15:8.0170002 16:5.3449998 17:5.3449998 18:6.6810002 19:2.0039999 20:1.336 21:7.8039999 #
-0.089590581005254965596407146222191 1:12.65 2:0.34400001 3:4.9050002 4:6.454 5:1.678 6:5.4640002 7:3.6570001 8:2.323 9:3.786 10:7.8309999 11:2.4960001 12:6.1960001 13:5.5500002 14:8.7340002 15:3.5710001 16:9.2510004 17:4.4749999 18:2.8399999 19:0.43000001 20:0.94700003 21:6.4190001 #
-0.17357944610531866880265283725748 1:5.3210001 2:0 3:7.316 4:7.316 5:4.6560001 6:5.9860001 7:1.995 8:6.651 9:2.661 10:7.316 11:3.326 12:2.661 13:7.316 14:4.6560001 15:5.3210001 16:1.995 17:4.6560001 18:5.9860001 19:0 20:6.651 21:8.2119999 #
-0.2997067262598585579702614722919 1:1.899 2:0.741 3:5.0949998 4:6.855 5:5.2340002 6:3.474 7:2.0380001 8:8.3369999 9:9.5880003 10:7.4109998 11:1.9450001 12:6.5770001 13:3.0109999 14:2.6400001 15:5.605 16:7.4569998 17:5.0949998 18:3.1029999 19:1.76 20:3.6589999 21:8.4750004 #
-0.076203831234746721712269845738774 1:8.2290001 2:1.3710001 3:6.1719999 4:8.9139996 5:1.3710001 6:8.9139996 7:2.743 8:2.743 9:7.5430002 10:6.1719999 11:2.743 12:2.0569999 13:4.1139998 14:4.8000002 15:10.286 16:4.1139998 17:3.4289999 18:1.3710001 19:3.4289999 20:0.68599999 21:8.7980003 #
-0.50084865983712267833993792010006 1:6.5100002 2:1.5190001 3:5.9029999 4:5.165 5:4.5139999 6:5.0780001 7:2.0829999 8:3.993 9:5.6420002 10:9.0279999 11:2.865 12:4.1669998 13:3.559 14:2.734 15:4.6880002 16:7.5089998 17:3.776 18:8.2469997 19:1.302 20:3.2550001 21:8.4630003 #
-0.024199367906375890413528395583853 1:3.517 2:2.1099999 3:3.517 4:7.737 5:4.2199998 6:7.737 7:2.813 8:5.6269999 9:7.0339999 10:9.8470001 11:3.517 12:1.4069999 13:4.9239998 14:2.813 15:3.517 16:5.6269999 17:4.2199998 18:4.2199998 19:0.70300001 20:7.0339999 21:7.8579998 #
-0.089037769241568809341913492971798 1:8.4510002 2:0 3:4.2249999 4:2.1129999 5:2.1129999 6:2.8169999 7:1.408 8:8.4510002 9:6.3379998 10:12.676 11:1.408 12:0.704 13:7.0419998 14:8.4510002 15:5.6339998 16:7.0419998 17:6.3379998 18:3.5209999 19:1.408 20:2.1129999 21:7.7449999 #
-0.061705690448527611424722749688954 1:9.6850004 2:0.69199997 3:4.8429999 4:6.2259998 5:2.075 6:5.5339999 7:0.69199997 8:6.9180002 9:4.151 10:7.6100001 11:4.8429999 12:8.993 13:1.3839999 14:6.2259998 15:5.5339999 16:3.4590001 17:4.8429999 18:2.767 19:0.69199997 20:4.8429999 21:7.9899998 #
-0.19531043201926104324606114914786 1:6.9710002 2:1.027 3:4.3660002 4:5.8699999 5:4.586 6:7.118 7:2.4949999 8:4.1820002 9:4.0359998 10:7.631 11:3.119 12:3.852 13:6.3099999 14:3.8889999 15:7.3740001 16:6.0170002 17:4.3660002 18:4.7329998 19:1.174 20:2.7880001 21:8.0950003 #
-0.038981209454295659422307096519944 1:4.6669998 2:5.3330002 3:6.6669998 4:6 5:0.667 6:3.3329999 7:2 8:11.333 9:6.6669998 10:12.667 11:1.3329999 12:6 13:6 14:0.667 15:2.6670001 16:4 17:2 18:3.3329999 19:1.3329999 20:4.6669998 21:8.6660004 #
-0.0062149462408584770986563761141497 1:5.5149999 2:1.276 3:5.474 4:5.6799998 5:4.198 6:3.5810001 7:1.729 8:6.0089998 9:7.7379999 10:8.684 11:1.729 12:5.9679999 13:4.4450002 14:3.457 15:4.527 16:8.6429996 17:4.527 18:5.2680001 19:0.78200001 20:2.5929999 21:8.1780005 #
