SVM-light Version V6.02
1 # kernel type
2 # kernel parameter -d 
1 # kernel parameter -g 
1 # kernel parameter -s 
1 # kernel parameter -r 
empty# kernel parameter -u 
21 # highest feature index 
54 # number of training documents 
23 # number of support vectors plus 1 
-2.2456114 # threshold b, each following line is a SV (starting with alpha*y)
-3.7829964025282907056496606301721e-05 1:9.3719997 2:0.69400001 3:4.8600001 4:5.901 5:4.165 6:9.0249996 7:1.7359999 8:2.0829999 9:3.8180001 10:10.76 11:2.777 12:2.0829999 13:3.8180001 14:4.8600001 15:6.5949998 16:3.471 17:3.471 18:6.2480001 19:2.777 20:2.4300001 21:9.0570002 #
-2.9275740523152882308771660646585e-05 1:7.4130001 2:0.33700001 3:3.369 4:5.7280002 5:3.369 6:6.402 7:1.6849999 8:6.0650001 9:8.0869999 10:8.4230003 11:2.359 12:5.3909998 13:3.7060001 14:5.3909998 15:2.0220001 16:6.0650001 17:5.3909998 18:6.0650001 19:2.359 20:2.6960001 21:7.6789999 #
-6.1733141070491022797672719946149e-05 1:7.322 2:0.58600003 3:5.5650001 4:6.151 5:2.6359999 6:4.3930001 7:2.05 8:4.9790001 9:8.4940004 10:8.7869997 11:1.1720001 12:6.737 13:3.2219999 14:2.3429999 15:3.5150001 16:6.737 17:9.0799999 18:5.2719998 19:0.87900001 20:2.6359999 21:7.4460001 #
-0.00010000000000000000479217360238593 1:11.019 2:0.50099999 3:5.5100002 4:5.0089998 5:1.753 6:9.5170002 7:2.0039999 8:3.506 9:2.2539999 10:8.7650003 11:2.2539999 12:2.5039999 13:3.757 14:5.0089998 15:6.2610002 16:5.7600002 17:5.2589998 18:7.0120001 19:1.753 20:2.7550001 21:7.8390002 #
0.0002987279050018596272125792623342 1:10.586 2:0.454 3:4.9899998 4:3.3269999 5:3.4779999 6:7.8639998 7:1.966 8:3.6289999 9:4.6880002 10:7.7119999 11:3.9319999 12:3.6289999 13:4.8390002 14:4.2340002 15:4.2340002 16:5.2930002 17:6.0489998 18:5.7459998 19:1.8150001 20:3.6289999 21:7.9060001 #
-7.0178498175798063136651694371437e-05 1:7.54 2:0.65600002 3:4.9169998 4:4.5900002 5:4.2620001 6:6.8839998 7:1.311 8:5.901 9:6.8839998 10:8.5240002 11:2.95 12:3.2780001 13:3.2780001 14:6.5570002 15:3.2780001 16:4.9169998 17:4.2620001 18:6.8839998 19:1.6390001 20:3.2780001 21:8.2080002 #
-5.6231452500860441790983546006544e-05 1:3.359 2:0.79000002 3:5.928 4:6.9159999 5:3.9519999 6:5.928 7:1.778 8:7.3109999 9:10.078 10:8.1020002 11:2.569 12:5.533 13:4.7420001 14:1.383 15:2.3710001 16:5.533 17:4.7420001 18:3.5569999 19:1.186 20:5.73 21:8.5100002 #
-2.9705501178463951557351396814965e-05 1:8.0939999 2:0.67400002 3:7.0819998 4:5.059 5:2.3610001 6:8.0939999 7:2.023 8:7.0819998 9:4.3839998 10:8.0939999 11:2.3610001 12:1.686 13:5.3959999 14:3.0350001 15:7.0819998 16:4.3839998 17:4.7210002 18:6.7449999 19:1.686 20:1.686 21:8.2709999 #
-7.7218875415637107384458914793868e-06 1:0 2:0 3:2.0799999 4:0 5:6.2410002 6:10.401 7:2.0799999 8:6.2410002 9:0 10:8.3210001 11:4.1599998 12:0 13:18.722 14:4.1599998 15:6.2410002 16:10.401 17:2.0799999 18:4.1599998 19:4.1599998 20:2.0799999 21:8.4709997 #
-0.00010000000000000000479217360238593 1:13.084 2:0.403 3:5.4349999 4:3.221 5:3.4219999 6:8.8570004 7:2.013 8:3.8239999 9:2.6170001 10:7.0450001 11:2.8180001 12:2.214 13:5.8369999 14:2.214 15:7.0450001 16:5.8369999 17:5.6360002 18:5.0320001 19:2.214 20:3.0190001 21:8.2130003 #
0.00015625782491957202792465242424669 1:5.8699999 2:0.36700001 3:4.77 4:5.5040002 5:2.9349999 6:7.3379998 7:3.6689999 8:5.8699999 9:5.8699999 10:9.9060001 11:0.36700001 12:5.5040002 13:2.5680001 14:1.835 15:3.302 16:9.1730003 17:6.6040001 18:5.8699999 19:2.201 20:2.5680001 21:7.9070001 #
6.5033398034367007577161157172441e-05 1:2.5369999 2:1.2690001 3:5.0739999 4:6.3429999 5:2.1140001 6:8.4569998 7:4.2290001 8:9.3030005 9:5.9200001 10:11.417 11:2.5369999 12:4.2290001 13:4.2290001 14:4.652 15:1.691 16:4.652 17:2.96 18:6.7659998 19:0.42300001 20:2.96 21:8.2370005 #
-2.0848269252743759083479346827517e-05 1:4.8390002 2:0.255 3:6.3670001 4:4.0749998 5:6.1129999 6:6.1129999 7:1.273 8:7.3860002 9:8.6599998 10:9.4239998 11:1.0190001 12:7.8959999 13:2.5469999 14:1.273 15:1.0190001 16:5.6030002 17:7.131 18:5.0939999 19:0.255 20:5.8579998 21:7.8010001 #
-2.805212186725043049806416206593e-05 1:4.0999999 2:0.64700001 3:4.5320001 4:4.9629998 5:5.8260002 6:6.9050002 7:1.726 8:7.553 9:6.0419998 10:10.142 11:2.8050001 12:4.5320001 13:3.4530001 14:2.589 15:3.237 16:6.9050002 17:8.8470001 18:4.0999999 19:1.511 20:2.158 21:7.427 #
-5.6612898436024300038993395389753e-05 1:8.0799999 2:0.83600003 3:5.2940001 4:3.622 5:3.622 6:6.1290002 7:0.55699998 8:6.1290002 9:5.8509998 10:8.0799999 11:2.786 12:4.7360001 13:2.786 14:5.0149999 15:3.3429999 16:8.0799999 17:6.9650002 18:6.6869998 19:1.393 20:2.5079999 21:7.5009999 #
3.4161111841606309408921754444677e-05 1:16.454 2:0.59799999 3:5.3850002 4:3.2909999 5:2.6919999 6:6.881 7:3.5899999 8:2.6919999 9:2.9920001 10:9.8719997 11:2.3929999 12:2.0940001 13:5.684 14:2.6919999 15:5.086 16:4.1880002 17:6.5819998 18:4.1880002 19:2.0940001 20:2.3929999 21:8.1560001 #
0.00020225507132546444947346353515627 1:8.3219995 2:0.574 3:7.461 4:6.027 5:3.7309999 6:6.8870001 7:2.0090001 8:4.592 9:4.592 10:6.5999999 11:2.8699999 12:2.296 13:4.3049998 14:2.8699999 15:5.7399998 16:4.3049998 17:5.4530001 18:6.5999999 19:1.722 20:4.0180001 21:9.0290003 #
-0.00010000000000000000479217360238593 1:9.3889999 2:0.46900001 3:5.3990002 4:4.9289999 5:2.8169999 6:7.5110002 7:3.286 8:4.9289999 9:3.286 10:9.1540003 11:2.3469999 12:3.286 13:4.46 14:2.8169999 15:5.868 16:5.3990002 17:4.6939998 18:6.1030002 19:0.704 20:4.6939998 21:8.4580002 #
-2.5359732928653721042988600231638e-07 1:12.295 2:1.576 3:3.783 4:5.6750002 5:5.0440001 6:5.6750002 7:4.098 8:2.8369999 9:0.315 10:10.719 11:1.576 12:2.207 13:5.3590002 14:4.414 15:6.9359999 16:5.3590002 17:5.0440001 18:5.6750002 19:1.892 20:1.261 21:8.2609997 #
-2.5633016481313225173876979567922e-05 1:11.504 2:0.639 3:5.1129999 4:6.072 5:3.5150001 6:7.9889998 7:1.9170001 8:4.474 9:4.7930002 10:7.9889998 11:2.556 12:1.9170001 13:3.1960001 14:3.1960001 15:6.072 16:4.7930002 17:7.6690001 18:5.7519999 19:0.95899999 20:1.9170001 21:7.967 #
-2.0037815543718479581458691285434e-05 1:4.4460001 2:0 3:4.914 4:5.1479998 5:3.9779999 6:5.8499999 7:1.872 8:8.1899996 9:8.658 10:7.02 11:2.3399999 12:7.9559999 13:3.51 14:2.5739999 15:1.872 16:6.3179998 17:5.8499999 18:4.4460001 19:1.17 20:5.8499999 21:8.0340004 #
-1.2321407196920854988653193373693e-05 1:12.125 2:0.33700001 3:5.7259998 4:5.3889999 5:3.7049999 6:5.3889999 7:1.347 8:4.3790002 9:3.0309999 10:7.4099998 11:3.368 12:1.347 13:5.3889999 14:4.3790002 15:7.073 16:3.7049999 17:4.3790002 18:7.073 19:2.358 20:3.368 21:8.7229996 #
