SVM-light Version V6.02
0 # kernel type
3 # kernel parameter -d 
1 # kernel parameter -g 
1 # kernel parameter -s 
1 # kernel parameter -r 
empty# kernel parameter -u 
21 # highest feature index 
54 # number of training documents 
45 # number of support vectors plus 1 
-1.780321 # threshold b, each following line is a SV (starting with alpha*y)
-0.010000000000000000208166817117217 1:9.3719997 2:0.69400001 3:4.8600001 4:5.901 5:4.165 6:9.0249996 7:1.7359999 8:2.0829999 9:3.8180001 10:10.76 11:2.777 12:2.0829999 13:3.8180001 14:4.8600001 15:6.5949998 16:3.471 17:3.471 18:6.2480001 19:2.777 20:2.4300001 21:9.0570002 #
-0.010000000000000000208166817117217 1:7.4130001 2:0.33700001 3:3.369 4:5.7280002 5:3.369 6:6.402 7:1.6849999 8:6.0650001 9:8.0869999 10:8.4230003 11:2.359 12:5.3909998 13:3.7060001 14:5.3909998 15:2.0220001 16:6.0650001 17:5.3909998 18:6.0650001 19:2.359 20:2.6960001 21:7.6789999 #
-0.010000000000000000208166817117217 1:7.322 2:0.58600003 3:5.5650001 4:6.151 5:2.6359999 6:4.3930001 7:2.05 8:4.9790001 9:8.4940004 10:8.7869997 11:1.1720001 12:6.737 13:3.2219999 14:2.3429999 15:3.5150001 16:6.737 17:9.0799999 18:5.2719998 19:0.87900001 20:2.6359999 21:7.4460001 #
-0.010000000000000000208166817117217 1:11.019 2:0.50099999 3:5.5100002 4:5.0089998 5:1.753 6:9.5170002 7:2.0039999 8:3.506 9:2.2539999 10:8.7650003 11:2.2539999 12:2.5039999 13:3.757 14:5.0089998 15:6.2610002 16:5.7600002 17:5.2589998 18:7.0120001 19:1.753 20:2.7550001 21:7.8390002 #
-0.010000000000000000208166817117217 1:11.504 2:0.639 3:5.1129999 4:6.072 5:3.5150001 6:7.9889998 7:1.9170001 8:4.474 9:4.7930002 10:7.9889998 11:2.556 12:1.9170001 13:3.1960001 14:3.1960001 15:6.072 16:4.7930002 17:7.6690001 18:5.7519999 19:0.95899999 20:1.9170001 21:7.967 #
0.009894217877617905720910584932426 1:7.6209998 2:1.039 3:2.0780001 4:7.967 5:4.5029998 6:6.5809999 7:0.69300002 8:6.2350001 9:7.6209998 10:6.928 11:1.732 12:4.5029998 13:2.7709999 14:3.464 15:2.7709999 16:8.6599998 17:4.5029998 18:7.6209998 19:2.425 20:2.425 21:7.8610001 #
0.070000000000000006661338147750939 1:8.0939999 2:0.67400002 3:7.0819998 4:5.059 5:2.3610001 6:8.0939999 7:2.023 8:7.0819998 9:4.3839998 10:8.0939999 11:2.3610001 12:1.686 13:5.3959999 14:3.0350001 15:7.0819998 16:4.3839998 17:4.7210002 18:6.7449999 19:1.686 20:1.686 21:8.2709999 #
0.020408680471999868233368147230067 1:7.54 2:0.65600002 3:4.9169998 4:4.5900002 5:4.2620001 6:6.8839998 7:1.311 8:5.901 9:6.8839998 10:8.5240002 11:2.95 12:3.2780001 13:3.2780001 14:6.5570002 15:3.2780001 16:4.9169998 17:4.2620001 18:6.8839998 19:1.6390001 20:3.2780001 21:8.2080002 #
0.03667874861043596279586154196295 1:6.9840002 2:0.63499999 3:3.8099999 4:4.4450002 5:5.3969998 6:4.7620001 7:1.27 8:9.842 9:8.5719995 10:7.9369998 11:2.2219999 12:7.9369998 13:2.54 14:3.4920001 15:0.95200002 16:7.619 17:7.302 18:2.54 19:1.905 20:2.2219999 21:7.6149998 #
-0.010000000000000000208166817117217 1:5.1599998 2:0.449 3:5.8330002 4:5.1599998 5:4.487 6:4.487 7:1.795 8:7.8530002 9:6.9549999 10:9.8719997 11:1.795 12:7.8530002 13:4.039 14:2.4679999 15:2.244 16:7.1799998 17:4.9359999 18:4.7119999 19:0.449 20:4.487 21:7.7870002 #
-0.010000000000000000208166817117217 1:2.5369999 2:1.2690001 3:5.0739999 4:6.3429999 5:2.1140001 6:8.4569998 7:4.2290001 8:9.3030005 9:5.9200001 10:11.417 11:2.5369999 12:4.2290001 13:4.2290001 14:4.652 15:1.691 16:4.652 17:2.96 18:6.7659998 19:0.42300001 20:2.96 21:8.2370005 #
-0.010000000000000000208166817117217 1:4.1110001 2:0 3:4.8369999 4:4.8369999 5:3.3859999 6:4.3530002 7:2.177 8:11.609 9:9.6739998 10:8.9490004 11:2.177 12:7.256 13:2.902 14:2.4189999 15:0.72600001 16:8.7069998 17:5.8039999 18:3.1440001 19:1.209 20:4.3530002 21:7.3709998 #
-0.010000000000000000208166817117217 1:4.4689999 2:0.99299997 3:3.4760001 4:3.973 5:5.2140002 6:6.4559999 7:0.745 8:9.9320002 9:9.1870003 10:11.67 11:1.49 12:4.7179999 13:3.973 14:4.7179999 15:1.49 16:7.9460001 17:3.973 18:3.2279999 19:0.99299997 20:3.7249999 21:7.631 #
-0.010000000000000000208166817117217 1:3.359 2:0.79000002 3:5.928 4:6.9159999 5:3.9519999 6:5.928 7:1.778 8:7.3109999 9:10.078 10:8.1020002 11:2.569 12:5.533 13:4.7420001 14:1.383 15:2.3710001 16:5.533 17:4.7420001 18:3.5569999 19:1.186 20:5.73 21:8.5100002 #
0.050744811135184142436571619327879 1:3.4549999 2:1.382 3:3.8 4:4.145 5:4.836 6:5.8730001 7:2.418 8:5.1820002 9:9.6730003 10:10.364 11:1.382 12:5.1820002 13:2.418 14:5.527 15:2.418 16:6.5640001 17:6.2179999 18:3.8 19:3.4549999 20:3.8 21:8.1079998 #
0.070000000000000006661338147750939 1:10.733 2:0.671 3:5.7020001 4:3.6889999 5:3.3540001 6:9.3909998 7:4.3600001 8:3.3540001 9:4.3600001 10:6.0370002 11:2.348 12:2.0120001 13:4.6960001 14:3.6889999 15:5.0310001 16:4.3600001 17:6.0370002 18:6.3730001 19:3.3540001 20:2.348 21:8.1009998 #
-0.010000000000000000208166817117217 1:5.552 2:0.37 3:6.6620002 4:3.701 5:4.0710001 6:7.0320001 7:2.5910001 8:4.0710001 9:11.474 10:5.9219999 11:1.851 12:5.552 13:2.221 14:4.0710001 15:1.11 16:4.441 17:6.2919998 18:8.1429996 19:1.851 20:5.1820002 21:7.8410001 #
-0.010000000000000000208166817117217 1:8.3219995 2:0.574 3:7.461 4:6.027 5:3.7309999 6:6.8870001 7:2.0090001 8:4.592 9:4.592 10:6.5999999 11:2.8699999 12:2.296 13:4.3049998 14:2.8699999 15:5.7399998 16:4.3049998 17:5.4530001 18:6.5999999 19:1.722 20:4.0180001 21:9.0290003 #
-0.010000000000000000208166817117217 1:5.5489998 2:0.97899997 3:5.875 4:3.2639999 5:3.9170001 6:6.5279999 7:3.5899999 8:5.875 9:8.4860001 10:8.4860001 11:3.2639999 12:4.5700002 13:3.9170001 14:2.938 15:1.632 16:6.2010002 17:6.2010002 18:5.875 19:0.32600001 20:4.5700002 21:7.9569998 #
0.048101583828170646484068129211664 1:5.1220002 2:0.34099999 3:5.1220002 4:7.5120001 5:4.098 6:3.756 7:0.68300003 8:9.5609999 9:9.5609999 10:9.5609999 11:1.3660001 12:8.8780003 13:2.049 14:2.049 15:2.049 16:5.4629998 17:4.7810001 18:4.4390001 19:1.3660001 20:4.098 21:8.1459999 #
-0.010000000000000000208166817117217 1:4.4060001 2:0.88099998 3:5.5809999 4:5.5809999 5:3.5250001 6:4.6999998 7:1.469 8:10.28 9:9.1059999 10:11.455 11:1.469 12:8.5179996 13:4.112 14:2.6440001 15:1.762 16:6.1680002 17:4.6999998 18:2.056 19:1.175 20:2.6440001 21:7.77 #
-0.010000000000000000208166817117217 1:6.1100001 2:0.45300001 3:1.584 4:3.168 5:5.6570001 6:6.336 7:1.131 8:7.2410002 9:7.0149999 10:9.9560003 11:1.8099999 12:6.5619998 13:5.204 14:4.7519999 15:4.073 16:5.204 17:5.6570001 18:5.204 19:0.90499997 20:4.073 21:7.9029999 #
-0.010000000000000000208166817117217 1:8.0799999 2:0.83600003 3:5.2940001 4:3.622 5:3.622 6:6.1290002 7:0.55699998 8:6.1290002 9:5.8509998 10:8.0799999 11:2.786 12:4.7360001 13:2.786 14:5.0149999 15:3.3429999 16:8.0799999 17:6.9650002 18:6.6869998 19:1.393 20:2.5079999 21:7.5009999 #
-0.010000000000000000208166817117217 1:4.4460001 2:0 3:4.914 4:5.1479998 5:3.9779999 6:5.8499999 7:1.872 8:8.1899996 9:8.658 10:7.02 11:2.3399999 12:7.9559999 13:3.51 14:2.5739999 15:1.872 16:6.3179998 17:5.8499999 18:4.4460001 19:1.17 20:5.8499999 21:8.0340004 #
-0.010000000000000000208166817117217 1:4.0999999 2:0.64700001 3:4.5320001 4:4.9629998 5:5.8260002 6:6.9050002 7:1.726 8:7.553 9:6.0419998 10:10.142 11:2.8050001 12:4.5320001 13:3.4530001 14:2.589 15:3.237 16:6.9050002 17:8.8470001 18:4.0999999 19:1.511 20:2.158 21:7.427 #
-0.0084941925406586682445464475676999 1:13.168 2:0.23100001 3:5.7750001 4:3.234 5:2.079 6:8.3170004 7:0.92400002 8:2.5409999 9:4.3889999 10:10.165 11:3.003 12:2.5409999 13:4.8509998 14:4.158 15:6.006 16:5.3130002 17:3.4649999 18:6.9310002 19:1.386 20:3.4649999 21:8.0550003 #
-0.010000000000000000208166817117217 1:12.295 2:1.576 3:3.783 4:5.6750002 5:5.0440001 6:5.6750002 7:4.098 8:2.8369999 9:0.315 10:10.719 11:1.576 12:2.207 13:5.3590002 14:4.414 15:6.9359999 16:5.3590002 17:5.0440001 18:5.6750002 19:1.892 20:1.261 21:8.2609997 #
-0.010000000000000000208166817117217 1:6.6290002 2:0.66299999 3:5.9660001 4:4.6409998 5:4.6409998 6:6.6290002 7:1.989 8:3.3150001 9:9.9440002 10:8.618 11:2.983 12:4.309 13:4.9720001 14:0.99400002 15:2.983 16:6.2979999 17:3.9779999 18:8.618 19:1.326 20:1.989 21:8.5139999 #
-0.010000000000000000208166817117217 1:6.553 2:0.65499997 3:4.914 4:4.914 5:2.9489999 6:6.2249999 7:0.65499997 8:8.191 9:5.8969998 10:8.191 11:3.6040001 12:7.5349998 13:3.9319999 14:3.276 15:2.9489999 16:6.553 17:8.191 18:4.2589998 19:1.638 20:1.638 21:7.2820001 #
-0.010000000000000000208166817117217 1:7.6680002 2:1.475 3:7.0780001 4:6.1939998 5:2.0650001 6:8.5530005 7:6.783 8:1.1799999 9:0.58999997 10:8.8479996 11:1.77 12:1.475 13:6.1939998 14:3.539 15:10.913 16:0.29499999 17:3.539 18:7.6680002 19:2.359 20:1.77 21:10.045 #
-0.010000000000000000208166817117217 1:14.034 2:0.685 3:5.8189998 4:2.3959999 5:3.0810001 6:8.5570002 7:3.4230001 8:4.7919998 9:3.0810001 10:7.5300002 11:4.1069999 12:3.7650001 13:5.1339998 14:4.1069999 15:3.0810001 16:4.7919998 17:5.8189998 18:5.4770002 19:1.369 20:1.369 21:7.5830002 #
-0.010000000000000000208166817117217 1:8.6829996 2:0.62 3:6.2020001 4:7.4429998 5:2.171 6:6.823 7:1.551 8:7.4429998 9:4.0320001 10:10.544 11:2.7909999 12:2.4809999 13:4.652 14:3.1010001 15:4.9619999 16:5.8920002 17:6.2020001 18:4.9619999 19:0.62 20:0.93000001 21:7.895 #
-0.010000000000000000208166817117217 1:8.4940004 2:0.54799998 3:4.9320002 4:6.302 5:4.9320002 6:7.3979998 7:3.2880001 8:5.2059999 9:3.562 10:7.1240001 11:2.1919999 12:2.4660001 13:4.658 14:4.3839998 15:2.74 16:7.9460001 17:7.6719999 18:5.7540002 19:1.37 20:1.6440001 21:7.3899999 #
0.030659976863993909645955682208296 1:12.125 2:0.33700001 3:5.7259998 4:5.3889999 5:3.7049999 6:5.3889999 7:1.347 8:4.3790002 9:3.0309999 10:7.4099998 11:3.368 12:1.347 13:5.3889999 14:4.3790002 15:7.073 16:3.7049999 17:4.3790002 18:7.073 19:2.358 20:3.368 21:8.7229996 #
-0.010000000000000000208166817117217 1:7.5770001 2:0.722 3:4.3299999 4:4.3299999 5:2.8859999 6:8.2980003 7:2.526 8:3.9690001 9:6.494 10:8.6590004 11:2.526 12:2.8859999 13:5.0510001 14:3.247 15:3.608 16:5.0510001 17:4.6900001 18:9.0200005 19:1.804 20:4.3299999 21:7.9959998 #
-0.010000000000000000208166817117217 1:9.7460003 2:0.30500001 3:6.3959999 4:2.7409999 5:3.655 6:7.9190001 7:2.437 8:5.178 9:6.7010002 10:6.0910001 11:3.046 12:4.2639999 13:4.8730001 14:3.655 15:2.437 16:4.8730001 17:6.0910001 18:6.0910001 19:0.60900003 20:4.8730001 21:8.0179996 #
-0.0082419305582772106610889295552624 1:5.8699999 2:0.36700001 3:4.77 4:5.5040002 5:2.9349999 6:7.3379998 7:3.6689999 8:5.8699999 9:5.8699999 10:9.9060001 11:0.36700001 12:5.5040002 13:2.5680001 14:1.835 15:3.302 16:9.1730003 17:6.6040001 18:5.8699999 19:2.201 20:2.5680001 21:7.9070001 #
-0.010000000000000000208166817117217 1:6.8010001 2:0.93800002 3:4.4559999 4:3.5179999 5:4.4559999 6:5.3940001 7:0.704 8:7.27 9:7.5050001 10:9.3809996 11:1.642 12:5.3940001 13:5.8629999 14:2.345 15:2.8139999 16:7.974 17:8.2080002 18:4.9250002 19:0.93800002 20:2.1110001 21:7.362 #
-0.010000000000000000208166817117217 1:13.084 2:0.403 3:5.4349999 4:3.221 5:3.4219999 6:8.8570004 7:2.013 8:3.8239999 9:2.6170001 10:7.0450001 11:2.8180001 12:2.214 13:5.8369999 14:2.214 15:7.0450001 16:5.8369999 17:5.6360002 18:5.0320001 19:2.214 20:3.0190001 21:8.2130003 #
-0.010000000000000000208166817117217 1:10.586 2:0.454 3:4.9899998 4:3.3269999 5:3.4779999 6:7.8639998 7:1.966 8:3.6289999 9:4.6880002 10:7.7119999 11:3.9319999 12:3.6289999 13:4.8390002 14:4.2340002 15:4.2340002 16:5.2930002 17:6.0489998 18:5.7459998 19:1.8150001 20:3.6289999 21:7.9060001 #
-0.0051540802397048168792537126137177 1:11.98 2:1.159 3:11.593 4:4.2509999 5:2.319 6:9.6610003 7:5.0240002 8:2.319 9:0 10:8.1149998 11:0.773 12:1.546 13:3.092 14:1.546 15:6.9559999 16:2.319 17:5.0240002 18:11.593 19:1.546 20:0.773 21:8.4130001 #
-0.0055347288326894616972140283905901 1:4.8390002 2:0.255 3:6.3670001 4:4.0749998 5:6.1129999 6:6.1129999 7:1.273 8:7.3860002 9:8.6599998 10:9.4239998 11:1.0190001 12:7.8959999 13:2.5469999 14:1.273 15:1.0190001 16:5.6030002 17:7.131 18:5.0939999 19:0.255 20:5.8579998 21:7.8010001 #
-0.0074946030390601325876787086599506 1:9.3889999 2:0.46900001 3:5.3990002 4:4.9289999 5:2.8169999 6:7.5110002 7:3.286 8:4.9289999 9:3.286 10:9.1540003 11:2.3469999 12:3.286 13:4.46 14:2.8169999 15:5.868 16:5.3990002 17:4.6939998 18:6.1030002 19:0.704 20:4.6939998 21:8.4580002 #
-0.0015684835770111149599870259407908 1:16.454 2:0.59799999 3:5.3850002 4:3.2909999 5:2.6919999 6:6.881 7:3.5899999 8:2.6919999 9:2.9920001 10:9.8719997 11:2.3929999 12:2.0940001 13:5.684 14:2.6919999 15:5.086 16:4.1880002 17:6.5819998 18:4.1880002 19:2.0940001 20:2.3929999 21:8.1560001 #
